100 100
0 0.0040418487 -0.004069956 0.0014206539 0.0021625548 0.0038508335 -0.0022290426 0.0014255545 0.0006748694 -0.0022985172 0.0029047495 0.0002359976 0.0040376205 -0.004378028 -0.00091585144 0.001463219 -0.003134827 -0.0024154745 -0.0037407894 0.0016254685 -0.0021497523 -0.0015143417 -0.00069109676 -0.0046990067 0.003639279 0.004668244 -0.0010878146 0.001060484 -0.0031510256 0.00068840664 -0.004973443 0.0003655795 -0.003916524 0.002522097 -0.0007796199 0.0013837158 0.004436518 0.0007554102 -0.0017687548 -0.0046710456 0.0001724516 0.002896185 0.002601862 0.004277437 -0.0015677416 -0.0002442277 0.0009987522 8.11005e-05 0.002272949 -0.004505486 0.0009955699 0.0027826363 -0.0038448153 0.003827056 0.0026356266 0.0016622604 0.0014804206 0.003970762 0.0028734375 0.004230831 -0.0019759322 0.0014410247 0.0020457245 -0.0016321074 -0.0031624406 -0.0033090902 0.0028405543 -0.0022530449 0.00453409 0.0017002649 0.0046121683 -0.0008900827 -0.0005685729 -0.0007165135 -0.0033899515 -0.0032159698 -0.0039771586 -0.0015661232 0.0015100334 0.0026422888 0.0047980174 -0.0037726848 -0.0033963877 -0.0004589283 -0.00095789507 0.0011161445 0.004014929 -0.0048767338 -0.003654313 0.0042364113 0.0022646212 -0.0011292333 -0.0043170042 -0.003120951 -0.00017402181 -0.0012973838 -0.00088723795 -0.0018204898 0.0039857095 0.0040773163 -0.00094309077
1 0.0038188407 -0.004780266 -0.0014939951 0.0031021703 -0.00034187036 -0.0014152466 8.255709e-05 -0.0027982383 0.0013397867 0.0019196765 0.0047606993 0.0034736926 -0.003508669 0.0044527734 -0.0031526731 0.0006513642 0.004383276 -0.0048558894 -0.00058159744 -0.0031169 -0.0010820357 -0.0023224342 0.0007186476 -0.0040075206 0.00050814496 -0.0045366082 0.004803731 0.0010659606 -0.0012499816 -0.0013728368 0.001097892 0.0011000228 0.0017198003 0.0030148588 -0.0038492624 0.0019564847 -0.00030898862 0.0034562787 -0.0027922152 0.0008069519 -0.0029524297 0.00040491344 -0.0032834923 -0.0038128267 -0.0015144157 -0.0046554483 0.0048990482 -0.00092701474 0.003347422 0.0018361788 -0.00064227264 0.00329699 0.0049608257 5.7598576e-05 -0.004744357 -0.0037534581 -0.0020628488 -0.0028263885 -0.004037167 -0.0006599538 0.0040020626 0.0038036471 0.00031889742 0.0046455488 0.0010674824 -0.00042435993 -0.00031251134 0.00051524676 -0.0036434848 -0.004332038 -0.0011331874 0.00043970626 -0.0028105436 -0.00084473565 0.0028349394 0.003846718 -0.0002941317 0.002559577 -0.0025962943 -0.004649093 -0.00085164653 -6.0827006e-05 0.0012077568 -0.0028989243 -0.0041511403 -0.0031030942 0.00393375 -0.0040979576 0.004620391 -0.00292346 0.0024832976 -0.0019742553 0.003990406 0.0031460114 -0.004670357 0.0007659625 -0.0033548395 -0.0009931689 0.0028339718 -0.0026019232
2 -0.004162912 0.0012206142 0.0010227053 -0.0040020053 0.0037813475 0.0015366827 0.004774167 0.00061284425 -0.0048900167 3.852602e-05 -0.0043834345 -0.0021721113 -0.0047998233 0.0023187767 -0.0012007486 0.0015513827 -0.0038313041 -0.0040855734 -0.0044446033 -0.00019666413 -0.0008510486 -0.004021627 0.003559853 0.00246314 0.004241121 0.0034017852 -0.0046481295 0.0020909826 0.004080629 0.004080411 0.0038768277 -0.0039859717 -0.0036236756 -0.00027499488 -0.0047364025 0.004942896 0.00209504 -0.0021311855 -0.0042994283 -0.0049921405 0.00020598341 -0.0011446315 -0.0018481589 -0.0016704327 -0.0018002002 0.0020898562 -0.0029001932 -0.00016608043 0.003090931 0.0017453255 0.0039609643 -0.0010357066 0.0044529233 -0.0047246567 -0.0009918404 -0.002623121 -0.0008448367 -0.0035905303 -0.00045035314 0.0012062876 -0.0031246096 -0.002426167 0.0007993034 0.004303883 0.0037776483 -0.0012455338 0.0024366486 0.0009274995 0.002929926 -0.002951067 0.0007314435 0.0023284452 -0.0021216285 -0.0023059237 0.0022747214 -0.00072849076 -0.00091690524 0.0014492739 -0.00028791185 0.0016315626 0.0042085033 -0.0045102965 -0.004050127 0.0042746207 -0.0046756193 0.0022149729 -0.004417707 0.0009881789 -0.0012055533 0.004166196 -0.0010230117 -0.0044609383 -0.003768031 -0.00282205 0.0044551007 -0.0041163457 -0.004198833 -0.0004350529 -0.0017047166 -0.0018104815
3 -0.0015026086 0.0012704581 0.0046700854 0.004320829 -0.0021029783 -0.0010321946 -0.0044171405 0.0012850077 -0.0047049336 0.00094417157 -0.0010275231 0.0022758842 0.0030697957 0.0028393203 -0.004897935 -0.00014530541 0.0046574883 0.0033911048 -0.0021511293 -0.0038295984 -0.00061337696 -0.0038008958 -0.00076166634 -0.0046532634 0.0011904901 0.00089062937 0.0013994165 0.00093299756 0.0028234264 0.0011760634 0.0049206764 0.002219201 -0.002188211 0.00016414002 0.0048699537 0.0020312206 0.0030601947 0.0030724956 -0.0041442853 -0.0020366162 0.00146307 0.0030969847 0.00083856564 -0.00207134 -0.00021449011 0.00017597806 -0.0015374981 -0.0018601464 -0.00073697744 0.0010356521 -0.0021230513 -0.003871364 0.004547729 0.0045815893 0.000516125 -0.0007101749 0.0030785818 0.0022864365 0.0028208168 0.0046874257 -0.002928937 -0.00044108462 -0.00033730874 0.0032439753 -2.2846274e-05 0.0019033886 0.0015628934 -0.0021243505 0.0025555831 -0.0017261254 0.003322497 -0.0039934968 -0.0026933216 -0.0016787201 0.0009913682 -0.0037819813 -0.0029890686 0.0048176553 0.0020881454 0.0018023984 0.0013234657 9.021582e-05 0.0028887 -0.0042423354 -0.0024745655 -0.0007890756 0.0019466258 0.0041772192 0.0035792226 0.0037925187 0.00057293754 -0.0035264278 -0.003173573 -0.0015005458 -0.0012898652 -0.0006558723 -0.0012363922 0.0033621676 0.0007517892 -0.0012793553
4 -0.00326505 5.740393e-05 -0.00089126406 -0.002502114 -0.00029683998 -0.001962148 -0.0049599735 0.0028162505 0.0011495948 0.0010511805 -0.0015194528 0.004099787 0.0022576181 -0.0011807138 0.0022317455 -0.004104517 0.0031688008 0.0039135274 -0.004234843 0.00017850893 -0.00022520684 -0.003587951 0.0031945184 0.00407264 0.00046098232 -0.0016922592 0.0023911004 -0.0030786162 0.001135115 0.002466287 -0.00080829253 0.0019288254 0.00068989163 0.0042015547 0.0017171507 0.000992489 -0.00029450888 0.0048665563 -0.0043636365 0.003003342 0.00490232 -0.0036288064 0.0045957947 0.002154776 -0.0018421225 -0.0044233953 0.0019902233 0.00066557294 -0.000540799 0.0033536674 -0.0022014785 -0.0012465548 0.0014501656 0.0036506522 0.0011214111 0.0046147294 -0.0029619962 0.0030407123 0.0044479826 0.0012898664 0.0047131972 0.0011316957 -0.0029437584 0.0012922902 -0.0049453927 0.0038608229 0.0012707687 -0.003354913 0.00019357027 -0.0034332806 -0.002276455 -0.0022229594 0.0011102608 0.0038236743 0.0045122663 0.0043535894 0.0046017338 -8.258596e-05 0.00034295674 -0.0021745132 0.0029036524 -0.0020093524 0.0014602821 -0.002471442 -0.004275619 0.0026163943 -0.00095164217 -0.000735275 -0.0011023772 0.00127901 0.004637964 -0.0038296573 0.0036167623 0.0019464283 0.0006917212 -4.747277e-05 0.004691139 0.0012218808 0.0023397692 -0.00035898527
5 0.0013082987 -0.0047883647 0.0018600719 0.001821558 -0.0033079158 0.0027534491 0.00010542199 5.3683296e-05 0.0032419423 0.004924991 0.004646525 -0.0025598453 0.0021582572 -0.00049744686 0.0013716538 -0.0033867424 0.00069391914 -0.0034810863 0.00373484 0.00053584855 0.0044224653 0.0009196154 0.0002706633 -0.0031589065 -0.003948095 0.0020934325 0.0016976963 -0.004940418 0.0013236613 0.0038306797 -0.0016914271 0.0046184845 0.0015864265 0.00035535172 -0.0019400571 -0.0019859064 0.004258286 -0.0037973565 0.003934768 0.00020802673 0.004682848 0.00097474316 0.0020193113 0.00062481686 -0.0035808694 -0.003849368 -0.0018138308 0.0028841058 0.0040386505 0.003688546 0.0013204031 0.0008927677 -0.0007706969 0.0040239235 0.0039199125 0.0010763444 0.0038171886 -0.0048801047 -0.0012627398 -0.001996315 0.004665126 -0.0024905305 -7.590465e-05 0.0021935888 -0.0017761188 -0.0007282109 0.0049635014 0.00467587 -0.0043939995 -0.0037308752 0.0015948056 -0.002889512 0.0038200272 0.0035422808 -0.0047347657 -0.0012918115 0.0041461764 0.0022432501 0.00243345 0.0014562099 -0.003070218 -0.004978909 0.004020646 -0.0001606089 0.00064990297 -0.0034944844 -0.0041741924 0.00068713725 -0.0016392767 -0.004574069 0.003488007 0.0042914106 -0.0023703324 0.0009805234 -0.004283 -0.0018413113 -0.0025109737 -0.0040038875 -0.0026849932 -0.0038769674
6 0.004629922 0.0037907036 -0.004413181 0.0007433612 -0.0016950851 -0.0030291122 0.0035416605 0.0039115613 -0.00027794577 0.0004345947 -0.00094609195 -0.004690371 -0.0010527228 -0.0013340937 0.004276895 7.5148884e-05 -0.0033064806 -0.00449937 -0.00010441709 0.0005436046 0.0012573833 0.0024094842 0.0038648434 0.00062667066 0.0008957563 0.0003966214 0.002319504 0.0019053365 -0.0015114469 0.0014777272 9.484356e-05 -0.0023828703 0.0037734816 -0.0025001394 -0.004179623 0.0010013287 0.0043469314 0.0038372818 0.0010593287 0.004892338 0.0025552893 0.0006756736 -0.0028578073 0.000636016 -0.0043930025 -0.00011448376 0.0022235755 -0.0012429238 -0.0010680729 -0.0010330295 -0.0030513005 0.0009286315 -0.0049601523 0.00017648702 0.002414254 -0.0011512274 -0.00391236 -0.0013820136 0.0013039624 0.0036215745 -0.0045939363 0.0019875197 0.00095594814 0.003961171 -0.0044578398 -0.003209092 -0.003555032 0.0025018728 -0.0046945685 -0.0033925925 -0.002864406 0.0020843754 -0.0044767684 0.0044048335 -0.003686577 -0.001498149 -0.0038923458 0.0008284431 -0.0021680975 -0.0020404165 0.0025292747 -0.0031412798 -0.00464567 0.0021655108 -0.0048337374 0.0011866353 0.0041945716 0.0023589483 -0.0021632677 -0.00029317755 -0.00113195 0.0031553525 -0.00070990575 0.004766793 -0.0035681408 0.0005543488 0.003507643 0.0026031504 0.0030046748 2.1624379e-05
7 0.0015260009 0.00037419843 -0.0011443531 -0.0046254997 -0.00023331214 -0.0006535272 -0.0029132192 -0.0018026358 -0.0045038317 0.0032788161 -0.0015598016 0.003828465 0.0032844786 0.0045753494 -0.00037713395 -0.00090199104 0.004045722 0.0026665735 -0.002882499 0.0030486295 0.0007855785 -0.0035281228 -0.0002344083 -0.004806167 0.0011318959 -0.002387591 0.0011521582 0.00081820507 0.0014795107 0.0033556381 -0.003395372 -0.0010566674 -0.001557715 0.0022144322 -0.003993951 0.0014336151 0.0045928434 -0.0028207058 0.0047142804 0.0006455574 0.0026952326 0.0009142058 0.0018373728 0.0016138661 0.004561023 0.0029706024 -0.0004799082 0.0019176751 0.00054686796 0.0014962875 -0.0042346534 0.002573214 -0.003025559 0.0022256337 -0.004515869 -0.0006074677 0.0006845738 -0.004411053 -0.0026070678 0.00078207394 -0.0007938063 0.0005233451 0.0021794839 -0.00036387937 0.0017648526 -0.0024904746 0.0011201082 0.0020292131 0.0012327689 -0.0014317774 -0.004172981 0.00055343984 -0.0042833537 0.00081124436 0.004591332 0.0028904034 -0.0020810454 -0.0019869197 0.0013548587 0.0045915525 0.00017525023 -0.00021617115 0.0046462286 0.002989362 0.0028433576 0.0040306486 0.0029443623 -0.003439967 0.0015596659 0.0039877286 -0.0027058923 -0.0045811543 8.6964574e-05 0.0016431338 0.0047070207 -0.004118373 0.0025357353 0.003378801 -0.0034683812 0.0005193157
8 -0.0015621472 0.004688656 0.0003279657 0.0049969386 -0.00047795847 0.0006096447 -0.004519844 -0.0018652361 -0.0034321467 -0.00449708 0.0038770074 -0.0036377911 0.002141389 -0.0007630121 -0.0012325393 0.0049806656 -0.004751237 0.0020575891 0.00035391934 0.0019688313 -0.0018158013 -0.0031984872 -0.0032227586 0.002097933 0.003400351 -0.0010833419 -0.00016847532 0.00057934923 0.0026429896 -0.00035881856 0.0031854603 -0.0019601695 -0.0022250211 -0.0033887099 -0.0009181355 0.004362244 -0.0010362202 -0.0030313807 -0.0013621717 -0.0021547717 0.0035537025 0.0011006342 0.004711778 -0.0008726916 0.00048389472 0.0013137339 -0.000929866 -0.004175951 -0.0002028714 0.0023842142 -0.0031801886 0.0018979753 0.0046022544 0.00064198626 0.003726013 0.0035425574 -0.0042471876 0.0027599 0.0043089865 0.0033460334 0.0036288295 0.0017786799 -6.248616e-05 0.004882573 0.0011503533 -0.004928783 -0.003997394 -0.00069154147 0.004058929 0.0036331806 0.0015231473 0.0029006097 -0.0048144823 0.0044155363 -0.00084175775 0.00273303 0.0029911883 -0.003317139 -0.0014776122 -0.0048790104 0.002532191 0.0011222078 -0.0030412124 -0.0020178938 0.001983759 -0.00038196007 -0.0005672914 9.287428e-05 0.0018799864 0.002819012 0.004660994 -0.002812569 0.0028631408 -0.0044352124 -0.004787283 0.0018183696 -0.00047934894 -0.003966322 0.00084435334 -0.0014329285
9 0.0045814384 -0.0004786402 -0.0007171226 -0.004303886 -0.003229342 -0.0008529043 -0.0012953137 0.0010059942 -0.0047586076 0.0033158027 -0.0045737983 0.0023917872 0.0024172459 -0.0044918084 0.0017699539 -0.003314687 -0.004653942 0.0044167545 -0.00407546 0.0024165753 0.0021082638 -0.00374183 -0.004018713 -0.0030450623 0.0039333096 0.0012460728 -0.0029478895 -0.002291559 0.0008361661 9.930413e-05 -0.0006513591 -0.0031760614 0.0030642394 -0.00052677933 0.0041771457 0.00457579 0.004713743 -0.00196845 0.003636689 0.00042968802 -0.0018402671 0.0007572295 -0.00464096 -0.0024375361 0.0036122445 -0.0021047597 0.0037140902 -0.0017695366 -0.0013657052 0.0037698792 -0.0029324496 -0.0012783317 0.0019787173 -0.0027205825 0.004440097 -0.001225946 -0.003957504 -0.0017345988 -0.0007411833 0.00025604106 -0.0035835062 -0.0011535054 -0.0012466018 -0.0048922007 0.0031043515 -0.004865819 0.00261473 -0.0034673237 0.0022896193 0.00030455412 -0.0029005562 0.0005241954 0.0032045646 -0.0021265214 -0.0017197328 -0.0040651206 -0.0015027004 -0.0002556322 -0.003968403 0.003503182 0.00095085986 0.0016345144 0.0027708556 0.0043840064 -0.00013322523 -0.0010760175 -0.003119064 0.004982237 0.0030915132 0.0015060306 -0.0022789328 0.003647144 0.0019227453 -0.0019113398 -0.0024180769 0.0034282738 -0.0049336604 -0.0049686204 -0.0009044218 -0.002280423
10 0.0010684682 -0.001373657 0.0007366501 0.0048988024 -0.0048792297 0.0025889613 -0.0048444257 -0.003925517 -0.00066890847 0.0017705457 0.00015883986 0.00022603944 -0.0011388706 -0.0036477225 0.0012328983 0.0027508442 0.004734819 -0.0005438016 -0.0016555076 0.0034007076 -0.001229502 -0.003292161 -0.0029341404 -0.0019294922 -0.003265583 -0.0028957617 -0.0008218675 0.00057540135 0.0031396998 -0.0048810816 0.0031496286 -0.00019053929 2.18465e-05 0.0042645195 -0.0030976115 0.0026356806 -0.0013909161 0.003634084 0.0046489043 0.0024908022 0.0023343647 -0.0016649747 0.0003092885 0.00088516343 0.0015106378 0.004348576 0.0011349889 0.004598337 0.0010747556 0.002441625 0.0036608959 0.0018607401 0.0023249537 -0.0008139927 -0.0012139755 -5.1413663e-05 0.004565553 -0.0013477618 -0.0018647856 0.00087447464 0.0028449753 0.002535394 -0.0019088304 0.0048830574 -0.0027378385 0.0010401248 -0.000541382 0.0012740535 0.0016354658 0.001765064 -0.00012985757 -0.0020248664 0.002905881 -0.0011140865 0.0011051898 -0.00050494727 -0.00036830176 -0.0036741416 0.002782452 0.0015061791 0.000944661 -0.0038278122 -0.003313344 -0.004690567 -0.0025332288 0.004038467 0.0036855051 -0.0003716494 -0.0040380345 0.0008811704 0.0026177512 -0.0022796534 0.0023674602 -0.0011875427 0.004557424 -0.0022043467 0.0001873076 -0.002910781 -0.0033230577 0.0046038544
11 0.00047629466 0.0010308772 -0.004179484 0.0025933348 0.0017482257 0.0048210016 -0.0040370417 0.0039988114 -0.0015401749 0.00016071089 -0.003971272 -0.0024208783 -4.177494e-05 0.00071883854 0.0043969797 -0.003014152 0.00099072 -0.004905425 -0.00353438 -0.0023498188 0.0005771704 0.001098745 -0.0016980725 0.0009157653 0.0021369886 0.0041579343 -0.0035788906 0.0032065865 0.0023649237 0.0017775474 -0.0036424152 0.0045921085 -0.0024473697 -0.0024037343 0.004193357 0.0015287441 -0.003940396 -0.0021728622 -0.0022967237 -0.0045500128 -0.00061627757 -0.0008014287 2.4659093e-05 -0.0046347464 0.0032652253 2.9570889e-05 -0.0035268534 -0.0016646145 -0.000909416 0.004770346 -0.0016101806 0.0035588946 -0.0040652263 -0.0027190219 0.0023277425 0.0040737977 -0.0048068822 -0.004344704 0.0018069083 -0.0027068704 0.002486315 0.0037424816 0.0049357936 0.0015326445 0.003113904 -0.0010162364 0.0006102128 2.994854e-05 0.0037035178 -0.0038692867 0.0024136836 -0.0012495858 0.004766793 0.00012377836 -0.0033096676 -0.0034097135 -0.0013923 0.00041613588 -0.0027095329 -0.0014304607 -0.0016049193 0.003182562 0.0048730196 -0.0031814296 -0.0034842393 6.138673e-05 -0.0016748959 0.0033951942 0.0020655007 -0.001808157 0.0039008055 -0.004046508 -0.001184349 0.004172233 0.0048956824 -0.0029264975 -0.0026406616 0.00015393784 0.003970218 -0.0036934852
12 -0.0019334888 -0.0010456168 0.0018370794 -0.0007473333 0.004038646 -0.0017864085 0.0044600526 -0.0011774153 -0.002659291 -0.002843774 0.0020910786 -0.004706081 -0.0015148681 0.0017031822 -0.0016867542 -0.003224874 -0.00444789 0.00057515036 0.004692656 -0.0015889013 -0.0014715623 0.0023074555 0.00021171756 -0.0006349264 0.0013969387 0.004527648 0.0016109776 0.0037970822 0.0030811382 0.002213568 0.004466392 -2.280157e-05 0.004055581 -0.004608972 0.003563135 0.003660378 0.0015066592 -0.002101044 0.00063117314 -0.00047480175 -0.0021846693 0.0033487696 -0.0004299963 0.004331792 -0.00058265915 0.0016342578 -0.0009503281 0.0025718468 -0.0041520083 -0.0008709971 -0.0043091536 -0.00021049939 -0.0027395063 -0.0049075675 -0.0008918168 0.0023976723 0.00033580186 -0.0006340444 0.00054300344 -0.0029017334 -0.0013372158 -0.0010027043 0.0005560112 -0.0038833462 0.001523742 -0.0040157866 0.0021528774 -0.00064540375 0.001837926 -0.0045378744 0.0012888638 0.0045228405 0.0043813027 -0.0018039078 0.0020884657 -0.00498496 -0.0012086385 -0.004741724 4.8967544e-05 0.002717093 0.0035484973 0.0037891483 -0.00444709 0.004899608 -0.0038542766 0.0017331396 0.0013180654 -0.0018943495 -0.004968875 -0.0031287572 0.0032135649 0.0022353334 0.001601004 0.004708809 -0.0030849623 -0.001802101 -5.2352436e-05 0.002156402 0.0038966816 -0.0011664235
13 -0.0037251096 -0.0017132247 -0.0026566254 0.004817211 -0.0040927255 0.003184815 0.0031543477 -0.0006551384 -0.0040989863 -0.0014572816 0.0031791301 -0.0035041315 0.002978718 0.0019898508 0.0012623817 0.003269257 -0.0022748667 -0.0022640817 -0.0037016796 -0.0040180725 0.0033113705 0.0033277571 0.0010118503 0.0039252853 0.0010249657 0.004268947 -0.0014480066 -0.003700382 0.0020187898 0.0018792753 -0.004095531 -0.00017688237 -0.003304761 0.00060438644 0.004484644 -0.004389751 0.00046541216 -0.0013264341 0.0038592909 0.0022057449 -0.00014107954 0.002699803 -0.004933547 -0.0047924886 -0.0041943723 -0.00016387738 -0.0044870907 0.0028536413 -0.0018739605 0.0044327145 -0.002185582 0.00050506834 0.00273222 5.004462e-06 -0.004350544 0.002781347 -0.0037850356 0.0006117909 -0.0020895528 -0.0041988064 0.004415624 0.0014707865 0.00092734164 -0.0045106597 -0.001577425 -0.0013620954 -0.0012151347 0.0043876236 0.0034407452 0.00014578598 -0.0023593283 -0.0021865712 0.0008542561 -0.00037666364 -0.0027233064 -0.004182026 -0.0032248264 0.00181001 0.00072900066 -0.0022983444 0.003374949 -0.0040512094 -0.0012660897 -0.002588492 -0.0019504649 -0.0039055008 -0.004415432 0.004112739 0.0041606193 -0.0042296164 0.0008107745 0.000113949645 -0.0037386906 -0.0029381895 -0.0013812827 0.002665083 0.0017339326 0.0028153528 -0.001714089 -0.0028587442
14 0.00041232724 -0.00072586304 -0.0048814253 -0.003948704 -0.0013970917 -0.0047787116 0.0007015965 0.00074059796 -0.0018233436 0.0038215742 1.8449966e-05 0.0029707951 -0.0028445178 -0.0014263403 0.0034397198 0.0013033841 0.0032288153 -0.0035006702 -0.004085156 -0.0021229868 0.0011439514 0.00085998606 0.0039058095 -0.0008803373 0.003620658 -0.0027193485 -0.0036572563 -0.00441941 0.0018699253 0.002676114 0.004494684 0.0011758767 0.0037246207 0.0042349007 -0.004920953 0.002150789 0.00016548671 -0.00091137644 -0.0018360734 -0.0028040383 -0.003982731 0.0015022685 -0.0048313164 -0.0013050972 -2.6829075e-05 -0.0036733327 -0.0047662007 0.0026224754 0.0044551278 -0.0018583869 -0.0034886599 -0.0013381625 -0.002960199 -0.0032413322 0.0010575266 0.0024000485 -0.0023449676 -0.004053068 0.003254543 0.0014728727 -0.00032658502 0.0031417198 -0.004041061 0.0010176944 -0.002580499 -0.003920813 0.0037166663 -0.002035014 -0.0026247792 -0.0026326173 -0.0012479532 -0.0023245781 0.000609308 0.0018266588 -0.0001231702 -0.0029144506 0.0037939101 0.0008454877 -0.0011442159 0.0011227876 -0.0009582131 -0.001471688 0.0037977686 0.0047232825 -0.004555536 -0.0038536284 0.0028203465 0.0037880149 0.0012809569 -0.0025232213 0.00032519223 -0.00019185012 -0.0019913923 0.0038290713 0.0030298848 0.0035109492 0.004515483 0.0028572222 0.0045124823 0.0026179296
15 0.00095727015 -0.0029453544 0.003581401 -0.0049547306 0.0015029246 0.0017981012 -0.0031369538 -0.0022176986 0.0048025064 -0.0011714697 -0.003599314 -0.003637203 -0.0041685393 -0.003087632 -0.0023401147 0.0033481112 -0.0023284531 -0.00026569376 -0.0023199706 -0.00037225056 -0.00031518936 -0.003511297 -0.0041019395 -0.0004949481 -0.0016687429 -0.0037449335 0.004340832 0.001980648 -0.003151483 0.004230094 -0.003944359 -0.002539392 0.0030995253 0.0017947 -0.0022439903 0.0030205715 0.0012046862 0.00037697423 0.0021299152 0.0016983757 0.0038948068 0.0020040334 -0.0009078253 0.001234604 0.0004875646 -0.0039024819 0.00075191306 -0.00029839342 0.0009961384 0.0032179859 -0.003543937 0.0010390603 -0.0037859422 0.00036113802 -0.0017560613 0.0024266252 -0.00029993057 -0.002502486 0.0015745689 -0.0047153467 0.0042195655 -0.0029033273 -0.004781905 -0.0031761248 0.0014179386 -0.0029617052 0.0020407285 -0.001249441 -0.0013048989 0.0033187596 0.0042470153 0.0012334394 -0.0035183835 0.004899148 -0.00040800916 0.0006929417 0.0023464938 0.0044743046 0.0007765754 0.0043878425 -0.0001239921 -0.001590414 -0.0013708556 -0.0017713481 0.004802312 -0.0009393613 0.0023293132 -0.0014035504 0.0037107524 -0.0011837422 -0.0048374454 0.0046209367 -0.004677903 -0.0030046694 0.00015531108 0.0022799103 0.0032466706 -0.0047640107 0.0021413434 0.0016652928
16 -0.004297532 0.0028344402 0.0015814989 0.004421198 -0.0034288298 0.004172587 -0.0008805059 -0.0042325472 -0.001992213 0.001967893 -0.0005362462 -0.0030430001 -0.00045624655 0.0017857808 0.003363234 -0.002196685 0.003920718 -0.004962825 0.0033711065 -0.000100707635 -0.00085084606 -0.0048712594 -0.0024392842 0.00025776913 -0.0022192055 -0.0017555021 0.003962136 -0.0009631752 0.0016141264 0.004946042 0.00071925763 0.0037327753 0.002784424 0.0025786096 -0.0027753394 0.0039582904 0.0029138327 0.0010258867 0.0034326985 0.00037268922 0.004224533 0.0013662549 -0.0006060153 -0.003515464 -0.003806063 0.00040880917 0.0008352925 0.0049088867 -0.00083447294 -0.00068447273 -0.003123359 -0.0001891274 0.0024892753 0.00472021 -0.00087523507 0.004555463 -0.0008149706 0.002389254 -0.003523051 0.002632922 -0.00440516 -0.0009005121 0.0019719945 -0.0015767924 -0.00014243321 -0.0026438064 -0.0034401077 0.0024322057 -0.00434229 0.0047514066 -0.00081513636 0.004038726 -0.0012965887 -0.0027823632 0.002500907 -0.002303375 0.004763442 0.0038459823 -0.0020564676 0.0002299631 0.0018640463 0.001546945 -0.00033069262 -0.0017516166 -0.0008041109 0.004574217 -0.0022785205 -0.0026796323 -0.0010236669 -0.0029897236 0.0018813508 0.0011433722 0.0033665905 0.004243601 -0.00012997026 0.00011695316 -0.004346016 -0.0021465593 0.0010758583 0.002289798
17 2.300553e-05 -0.0026368469 0.00458432 -0.0032384573 0.0027792961 -0.00073330477 -0.00045825727 0.0031227022 0.0003912188 -0.0017205458 0.0047526183 0.0013841945 -0.0034385095 -0.0023273241 0.004061209 0.0034370963 -0.0012630201 0.0007298053 -0.00041591702 -0.0023888343 0.0028873133 0.0045855585 -0.0010322509 0.001014953 0.004279975 -0.0017652828 -0.00091032917 0.0012407033 -0.0016364662 -0.00270086 0.0036195572 -0.0039954595 0.003616401 0.0014271778 -0.00093361875 0.0009939522 0.0029549813 -0.0014798511 -0.0034318464 -0.0031495863 0.0035454892 0.0005487292 -0.0026515578 0.001998697 0.0035624346 -0.0038876133 -0.0024057806 0.002347346 0.0016044779 -0.0014440108 0.0021369294 -0.0012980436 0.0045231422 0.004672789 0.0037101554 0.0033658184 0.002010893 0.004902524 0.0008716262 -0.004702472 0.0004359251 0.0025633532 0.001149754 -0.00015451293 -0.0028142738 0.0011490076 6.121397e-05 0.0033042347 0.0034367582 0.0011639018 -0.0032095234 0.0046558157 -0.0033478593 -0.0036770343 -0.0027571535 -0.00074309576 -0.0019293767 -0.003027628 -0.0015394413 -0.0013400619 0.0008957167 0.004827087 -0.0015467096 0.0026155002 0.0037047397 0.003463407 0.00047175726 0.0030340273 -0.0006979918 -0.0006620516 -0.0018557792 -0.0026648336 7.783109e-05 -0.0032133632 -0.0038823253 -0.00075301155 -0.0008113547 0.0043267934 -0.004157151 -0.0018799526
18 -0.0024320215 0.002851313 -0.001408543 -0.0049954043 0.0024186247 -0.000133486 0.003055471 0.0043031266 -0.0019988054 0.00189008 -0.00038619153 0.0043334235 -0.002350474 -0.0032121502 0.0047692657 -0.0016559905 -0.0043031643 0.0020460933 0.004159065 -0.0019086986 -0.0001935591 -0.0009922548 -0.0046488717 0.0010027569 -0.0023670048 0.0024239798 -0.004530084 -0.0044418913 0.004490682 0.0012139147 -0.00015339255 0.0011338186 0.0009370311 -0.0028537696 0.0033002421 -0.003959166 0.0036759488 -0.0010572304 -0.0048565534 0.0033442052 0.0035052104 0.0024724454 -0.0040918654 -0.0025974314 0.0015241317 0.004947696 0.004490751 -8.256361e-05 -0.00057292124 0.0034432802 -0.003314094 0.0027073715 0.0014387774 -0.0013516187 0.00014068745 0.004197696 0.0018477147 0.0010185647 0.00010710256 0.0048561087 -0.0044833976 0.0028587077 0.0023649004 -0.0046230275 -0.00033191638 -0.003616858 -0.0025088983 0.0042503113 -0.0001024236 0.0001769904 -0.002682597 0.0025694421 0.004907011 -0.004419949 -0.004536602 -1.9002706e-05 -0.0014969474 -0.0023439205 -0.003928014 0.0044162795 -0.0009722663 -0.0015896601 -0.0030849646 -0.004749595 -0.004016225 0.0019032005 0.0044658063 -0.002563368 -0.0030598775 0.0039371904 -0.0038127052 -0.0005568699 -0.0043186536 -0.0043026106 0.0026508565 0.00037052622 -0.00046429876 -0.004501324 -0.0001212568 -0.0011102206
19 0.0038275756 -0.0022933965 -0.0007581576 0.00096075423 -0.0047885305 -0.004491838 -9.4152056e-05 0.0048992047 -0.00021348335 0.003171931 -0.003572927 0.00096887955 -0.004978391 0.004853337 -0.0015939169 0.00044258125 0.004805118 0.0010434156 0.0004232186 -0.0014585899 0.0035221474 -0.00012797723 -0.0020464968 0.0034494037 0.00080415746 0.0013580285 0.0041382834 -0.00155998 0.003066333 0.0010522171 0.0042291405 0.0018864451 0.0048560137 -0.0035856608 -0.002702083 0.0009117983 -0.0044684205 -0.002524836 0.0034363782 0.0036552297 -0.0005500959 -0.002337026 0.00033029215 0.0035103634 -0.0037790453 0.00028514396 0.00025465246 -0.002922963 0.004209564 7.611513e-05 9.148428e-05 -0.0024214315 -0.0044781677 -0.0033151817 -0.0009577144 -0.0021121085 -0.0036398605 -0.0036177628 -0.0014377213 0.0027628685 -0.0017122347 0.003733134 0.0030286154 -0.0041360455 0.0046952674 0.002394047 0.0046194224 -0.0038194447 -0.0027704732 0.0011098976 0.004118423 -0.00241888 0.004423647 0.0026399344 0.002446849 0.0035207402 -0.0039682495 0.0033857226 0.0036765616 0.0014964449 0.00018083816 -0.003038359 -0.0011697877 0.0032840576 -4.376704e-05 -0.0012403906 -0.0024088095 -0.0043004863 0.0029280456 0.004764864 -1.9740313e-05 -0.004385057 -0.0009368411 0.001081218 0.0032897238 0.0003629462 0.0030851709 -0.0026490223 -0.0015361516 0.0018883804
20 -0.0043089655 -0.00017261924 0.00014442392 -0.0028684144 -0.0028229957 -0.0012940823 -5.7733152e-05 -0.002856981 -0.0039346637 -0.00014967518 -0.0022042631 -0.0012647086 0.0034439936 0.00070775906 0.002378047 -0.0040047537 0.0033735288 0.0019300771 -0.0049054045 0.0018732529 -0.00055180537 0.0006613182 0.00031213462 0.0021957476 0.0021482268 -0.0010730098 0.0033268193 0.002357596 -0.001226902 -0.0049786125 -0.00096229604 0.001649661 -6.2615145e-05 -0.0023494952 0.003994573 0.0022604596 0.0010235924 -0.0017002325 -0.0043193614 -0.0042597298 0.0027667456 0.00453977 0.0030082176 -0.0049293195 0.0031982074 -0.0046662996 0.002839339 -0.0007801745 0.0025555915 -0.0021582865 0.004434229 0.00037595816 -0.003705061 -0.0015627085 0.0044515654 0.0042542843 5.6488905e-05 -0.0030270547 -0.0018830406 0.004777495 -0.0004649884 -0.0014255773 -0.0015902035 0.0048783217 -0.0026182807 0.0010677371 -0.0003918074 0.00023247162 0.0027408032 -0.00017073937 0.0028066454 -0.0023714101 0.0035991874 -0.001027158 0.0016568247 8.977018e-05 0.0042584306 -0.002035728 0.0049062604 0.0010173852 7.543387e-05 0.0012084455 -0.00089752907 -0.0033565992 0.0011260598 -0.0012363279 -0.0017263948 0.0028706146 0.0041914852 0.00027392246 -0.001984965 0.0028265752 0.0040015653 0.0036049504 0.0038871467 -0.0014578353 0.0019664597 0.0022694007 0.0002453057 -0.0033548372
21 0.0035197195 -0.003438391 -0.0007883413 0.004534662 -0.0025275152 -0.0033070943 0.0008523804 -0.0024044025 -0.0035304737 -0.0034528142 0.0020954735 -0.0011317455 0.002507287 0.0019872873 0.004092114 0.0013273181 0.0019144625 0.00018287962 0.0020495364 0.001157139 0.0026430166 -0.00051338365 -0.0013102901 -0.0012232047 -0.002429064 0.0018626559 -0.0020913964 0.00037092762 -0.00040383637 0.00026364625 0.0025841636 0.0006250781 0.0018571205 0.0048515834 0.0005326662 -0.0043899375 0.0030057952 0.003167592 -0.003891767 -0.0026825613 -0.0039837584 -0.0027348266 0.004476955 -0.0024028902 0.00019163825 -0.0005560089 0.0019762455 0.00015098462 0.003046942 0.0026142932 0.0021066992 0.0042688577 0.0016150093 -0.0035394721 0.00482151 0.002633602 -0.0013035983 0.0045561567 -0.0015621716 0.0046755234 0.0025364007 -0.0022718012 -0.00025651325 -0.00022016326 -0.002817902 0.0038876506 -0.0035528885 0.0012969868 0.002523901 0.0034347726 0.003387061 -0.00091159064 0.003451638 -0.0026192872 0.003286887 0.0032521589 0.0022160732 -0.0022237576 -0.0039235777 0.0032840772 -0.002466083 -0.002164232 -0.0017802143 0.0009960704 0.002156245 -0.0048013157 -0.0022067833 0.0025165076 0.0021440112 -0.00017368235 0.0032032458 0.0035480838 0.0008689258 0.0014360654 -0.0029895317 0.0011355584 0.0040104417 0.00020396523 -0.0023594177 -0.0033477894
22 -0.0033863115 -0.0018305324 -0.0013498615 0.0044958964 -0.00014999136 -0.00084937457 0.0044635767 -0.0024991105 -0.0036213445 0.001372538 0.0019147759 -0.0036949092 0.0011520176 -6.942311e-05 -0.0029927962 -0.0031349827 -2.8391369e-05 -0.0033244467 -0.0009868308 -0.00464208 -0.0047026905 -0.00055986503 0.003812451 0.00411944 0.0029783621 0.00058192015 -0.0008840645 -0.0026629418 -0.0022407966 0.004607699 0.000751561 -0.0011500162 -0.0033095193 -0.001983531 -0.0046879738 -0.0038376497 -0.00279225 -6.9906935e-05 0.0016853767 -0.004080619 0.0004052408 0.0022984021 0.0047121653 -0.0035941834 0.0031378157 0.0021343613 0.004034985 -0.004009537 0.00097001484 -0.0011283886 -0.0027816396 -0.002087007 -0.0022270328 0.003626423 -0.0007893569 0.002395486 -0.0019293458 0.0024925629 0.00031448482 -0.0005798987 0.004689129 0.001271816 -0.0037538642 0.0034792759 0.003328723 -0.000764729 0.0037875082 0.0034506815 0.0032123514 -0.0047842115 0.0039720014 -0.0004913234 -0.002372937 0.003913288 -0.0040097693 0.0018392256 -0.0038699238 -0.0020950043 -0.0025818795 -0.0029158383 -0.0036472548 0.0042357147 0.0044445368 0.0049692234 -0.003993673 -0.0021946435 0.0045219855 0.0014901315 -0.003036859 -0.0008980902 0.004697852 -0.00021165237 0.0019270433 0.0023900657 0.0024233889 -0.003226887 0.002146129 0.0029089982 -0.0048550516 -0.0039206003
23 0.004202284 -0.00017934758 -0.0049859793 0.001880167 -0.0002677394 0.00031554885 0.0034676734 0.0013716407 0.000766804 -0.00089881755 -0.003934048 0.0011941884 -0.001180805 -0.0006383611 0.0039845984 0.0025233729 -0.004695213 -0.0010252167 0.0033003157 0.0004932219 -0.0015747005 -0.003658799 0.0033581043 -0.00017902115 -0.0012154656 -0.0015412068 -0.0044747344 0.0009784163 0.0015661214 0.003656868 -0.0004517818 0.0023073475 -0.0018161337 0.0027441042 -0.004947516 0.0025729495 -0.0021515065 -0.0045997123 -0.0019458323 -0.0044445386 -0.003802877 -0.0041528777 -0.004564709 0.0021622516 -0.0042559556 0.004038913 -0.0039870297 -0.0028780978 0.0009873398 0.0012679626 0.00030385097 -0.0024192047 0.004178618 -0.0013081431 -0.003152824 0.002471534 -0.0037339865 -0.0039203875 0.004900909 0.0014603101 0.0029108115 -0.0007231808 -0.0036488418 0.0035378514 -0.0032230956 0.0031731594 0.004440899 0.0009986609 -0.0049449545 -0.0049360436 -0.0020043002 -0.0008684504 -0.0029385835 0.0031377096 -0.0013594097 0.004988201 -0.0012021703 0.00054343324 0.0034704776 0.0016986392 -0.0012338215 0.0025424343 -0.0019103377 0.004804872 0.0001561828 0.0023785676 -0.0021355657 0.0043763854 -0.004700014 -0.004484162 -0.0007389183 -0.001034386 0.00017721578 0.0032133404 0.002109766 -0.0039013647 -0.0021441304 0.00010415446 -0.0035003684 -0.00035305182
24 0.0045011044 0.0032083075 -0.0044380864 0.0012295945 -0.0009856112 -0.0015793473 -0.0030129289 0.001213829 -0.00038064737 -0.00081101106 -0.0044735274 0.004792393 0.0018680817 -0.0034489385 0.0028874334 -0.0047707735 -0.0007974468 -0.0014647257 -0.0046413033 -0.0021590851 -0.00014981441 0.0041070804 -0.0025417167 -0.00022142753 0.00228154 0.00073031895 0.002841236 -0.0010479284 0.00046493765 -0.0048137084 -0.002250822 -0.0027481238 0.0018152851 -0.0030218028 0.0008407342 -0.00054484745 0.0013130144 0.0010878174 0.0009342446 0.0008822209 0.004858047 0.003985851 0.0005975566 -0.0013526736 -0.0025145214 0.0042996667 -0.0015098851 0.00038856268 -0.003445 -0.0037108026 -0.001370905 -0.0021054363 0.0025094682 0.0048497226 -0.004360399 0.0010520248 0.003969632 -0.0024212098 -0.0010913746 0.0030894894 -0.0048550568 0.0033892365 -0.0026112287 -0.0034869937 -0.004584921 -0.0044073025 -0.0007715393 -0.00034735864 0.0005737501 0.003296691 0.0030462835 0.0004993058 -0.004706588 0.0012755166 0.0031270208 -0.00015000999 -0.0034722465 -0.0028561568 0.00060818717 0.001166719 -6.815931e-05 9.838166e-05 0.0046431087 0.0026636655 -0.0028147728 0.00031377515 -0.0008861171 0.003384538 0.0036536288 0.00039502606 -0.0042155576 0.0048230086 0.0015971134 4.429184e-05 -0.0033382159 5.3225085e-05 -0.001416635 -0.004006443 0.0028524986 0.0044305576
25 -0.0038903342 0.00082694367 0.00045934273 -0.0031830524 -0.00036292383 0.00086484477 -0.0041764565 -0.0017161332 0.0014272947 0.0010530581 -0.00016638171 0.0022800416 0.0012196624 0.0038743205 0.0028578527 0.00041294703 -0.0015999465 0.002764389 -0.0017157244 0.00011233287 -0.004434045 0.002505926 0.0032790294 -0.004880945 0.0020185472 -0.0027563584 -0.00084741553 -0.0032522404 0.0025036442 -0.0031738114 -0.00060468353 0.004640489 0.00017006043 -0.0038301372 0.0044022473 0.0030060653 -0.0013672293 0.0028797723 0.0012030625 -0.004085283 0.004928626 -0.0040253466 0.00030562002 0.0033232002 -0.0009803688 0.0015955823 0.0046891114 -0.0049467916 -0.0042717946 -0.0032987092 -0.004509968 -0.00458844 -0.0040516085 0.0023210887 -0.004783955 0.0042067654 -0.003976043 0.0014668261 0.00499676 -0.0023972297 -0.0045918273 0.002378513 0.00030128658 0.004133071 0.0013351208 -0.004127616 -0.0034929526 0.00025572302 -0.0019711494 0.004496482 0.0040313303 0.00014292961 0.002086474 -0.0011831748 -0.0033123768 0.0031098202 0.0046041245 -0.0020515935 -0.0013344926 0.0024721152 0.004973531 0.0027250228 0.0034133233 -0.0013694626 -0.0016289079 0.0026103049 -0.00020315684 0.003910943 0.003855641 0.004412072 -0.001691249 -0.0018089383 -0.0049136067 0.0027681873 -0.004120307 0.0027744584 0.00053443806 -0.0038648597 -0.0032259715 -0.0026554607
26 -0.0047233663 0.0014687623 0.0041696643 0.0013448945 0.0048742574 0.0008132602 -0.0042592273 0.0037535457 0.0020041205 0.0029081823 0.0044621984 -0.0005309512 -0.0025639802 -0.0036757672 -0.002220329 0.0031878743 -0.0003594053 -0.003039224 0.00034162635 0.0047611594 0.00353273 0.0035965098 -0.0010634633 -0.0041784435 -0.0011912035 0.0013601603 -0.0028196264 -0.004500302 0.0048293984 0.0027128034 0.0018819557 0.0040442823 -0.0018154036 0.0017258865 0.0013276828 -0.004438759 0.0032707686 -0.0033166944 0.003489702 0.0011063139 -0.0011250759 0.00456566 -0.0048173377 0.004072654 0.0013591433 0.00019531185 -0.0017426263 0.0035714135 0.003598879 0.0033449363 -0.004058908 0.0017230152 0.0028455704 -0.004287325 -0.00013933005 -0.0015394706 -0.0044903713 -0.00087849237 -0.002474581 0.0045800162 0.004231992 0.0029705921 -0.0036248332 -0.00092736725 0.00085956557 -6.4395834e-05 0.0030028326 0.00091353944 0.0020416267 -0.004839621 -0.0025748366 -0.00408826 0.00026341202 0.004119415 0.0005090879 -0.0006021308 -0.0021804941 -0.0013291985 0.002594146 -0.0039835786 0.0047076186 -0.003949206 -0.00034955703 -0.0028775774 0.0030314056 0.0033033844 -0.004779066 -0.0026679968 0.0019268189 -0.0047912574 -0.0030111908 -0.0013451015 0.0021061567 -0.0003862176 -0.004006914 -0.00023187697 0.0018521096 -0.003718894 -0.0020400565 0.0010070144
27 -0.00397586 -0.002981541 -1.3811979e-05 -0.00096087577 -0.001663788 0.0037343372 0.004430728 0.00017112866 -0.0012239313 0.00075330026 -0.00068614166 8.415384e-05 -0.0048031104 -0.0036148988 -0.002970968 -0.004085236 0.0025149737 -0.0035543717 0.002578659 -0.0022655593 0.003975504 0.0014245035 0.0029416224 -0.0024505525 0.0003333781 0.0032000411 0.0023754602 -0.00045813806 -0.001524685 -0.0012680609 -0.0018056906 0.0032076826 0.003743209 -0.0024908893 0.0019940217 0.00010099122 -0.0047250013 -0.0014350247 -0.0037510698 -0.004304664 0.0018687677 -0.0029860758 0.0017246092 0.0035141464 -0.0012617654 0.0038875826 0.004726248 0.002919943 -0.0033779596 0.0046289796 -0.004043012 -0.0021197437 0.0034113973 -0.0012016951 -0.004782558 0.00203066 0.002775399 -0.0025682317 -0.0016636967 -0.0044402713 1.9204803e-05 0.0031115217 0.0019362383 0.0034714295 0.0033698482 -0.00068855705 -0.0016544599 0.001213951 0.0008699619 -0.0025397765 -0.0014229005 -0.0007682205 -0.00033166632 -0.0012944536 0.0032780534 -0.0045486903 -0.0007647169 -0.002976799 -0.0028518462 -0.001349675 -0.0047678994 0.0020995396 0.0027045445 -0.0047925166 -0.0008467636 0.0039972253 -0.0016784917 -0.003793345 0.00059622666 0.0045846542 0.0034473138 -0.004825882 -0.0023901379 0.004499535 0.003523863 -0.003518685 0.0006699967 -0.00016186293 -0.00037062308 0.0025019073
28 0.00086295465 0.0026729074 -0.003224157 0.00041758316 -0.004538477 -0.00023436127 -0.0042442153 -0.0007176311 0.0044301553 0.0036346223 0.0042225244 0.0038766945 0.00092149153 -0.00012175972 0.003114055 -0.0048130113 0.0048292633 -0.004965397 -0.0033969479 -0.0004023253 0.000369492 -0.00096295075 -0.0040141363 -3.0654017e-05 -0.0029824888 -0.0004086895 0.0024389052 0.003956856 -0.0039380454 -0.0045039803 0.0023190323 0.004883785 -0.00089349085 0.0038452372 -0.0034733557 -0.002968158 0.0044931704 -0.0022214507 -0.0034097452 -0.004066791 0.0049546 -0.0012729776 -0.002475097 0.00012777187 0.0037796125 0.0033703689 -0.002145161 -0.004095547 -0.0007131449 -0.0015753484 0.0049620634 -0.0044415537 -0.0008728667 0.002430045 0.0007857424 0.0023088222 0.003057612 0.00041847816 -0.0034120278 -0.0004527769 0.0033973232 -0.0042101634 0.00043938402 -0.00049816445 -0.0006921822 -0.0011168486 0.0015567644 -0.0020027237 -0.0034913635 9.947922e-06 0.00015643192 0.0043537393 -0.00078874687 -0.0022395407 -0.0017767977 -0.003869061 0.0047449544 0.00017952872 0.0030228933 0.0046432056 -0.00043997215 0.0018839836 -0.0030744649 -0.004089179 -0.0039781313 0.0009765029 0.0034810277 0.0029396415 0.0030142572 0.0041086087 -0.0041823266 0.0038177408 -0.0018520111 -0.0045946287 0.00060914597 -0.004291026 0.003452694 0.0010261005 0.0023394525 0.0035346178
29 0.0045521064 -0.00038118474 -0.0026775997 0.0007368638 -0.0046403497 -0.0039049892 -0.0013094568 -0.0033937036 0.004849525 0.00047813868 0.001831362 -0.00080645876 0.003236738 0.0047479253 0.0005600704 -0.0033892952 0.0015946748 0.0009449376 0.0028241137 -0.004725291 0.0029132515 -0.0007937234 0.002045286 -0.0007914952 -8.719973e-06 0.0020207823 0.0043943934 0.0039722743 -0.0014114606 -0.0033633935 0.004293279 0.0004106881 0.004047676 0.002746367 0.00059469976 0.0021719486 -0.00017617084 -0.0010930966 0.0047191586 -0.0033718068 -0.0033898049 -0.0045777736 0.0012096339 -0.0043319035 -0.0017961967 -0.004807722 -0.0032149167 0.0024079024 -0.0021228604 0.00032042526 -0.004359788 0.0004696981 0.0019280785 -0.0029468876 -0.0049225898 0.004662317 0.0033239843 -0.0010765763 0.00023478502 0.0046921764 0.004109568 0.0021002777 0.0041868463 -0.0035778931 -0.0029344296 0.004619385 0.0025507081 0.0037879786 0.0027015512 0.0008502044 -0.002405237 0.0046816664 -0.0030361372 -0.0047234017 -0.0010298919 0.0025030929 0.002037136 0.0011937334 0.0009922921 0.0005825693 0.0016355221 0.00070633925 0.0005035717 -0.00274167 -0.0024638677 -0.004998395 -0.000796793 -0.0038242768 0.0037160832 -0.0011782038 -0.0040214593 -0.0045128604 0.0033482201 -0.0020712542 -0.0026828109 -0.0005755401 -0.0036884057 0.0010013096 0.0033440795 -0.0010925923
30 0.002431008 -0.0005239784 -0.004880165 -0.0044927383 -0.0016092085 -0.00072308583 0.0034133215 0.0022856193 0.004825225 0.0032777209 -0.00083528226 -0.0023093491 -0.0036163633 0.0022321884 -0.0045043514 -0.004135697 -0.0005247374 0.0018154061 0.00467181 0.004436845 -0.0020758891 0.0027388572 0.0014361204 0.003195907 0.0029271282 0.003320857 0.0037323507 -0.0010468108 0.0024974942 0.0023080376 -0.0021693099 0.0020592404 -0.004863897 0.001247975 0.0024486082 -0.0023743515 -0.0024431879 -0.0022618026 -0.0035764556 -0.004997013 0.0031256694 -0.0036225915 -0.0024006707 -0.0038150446 0.0043645836 -0.0032611839 0.0045489836 -0.0030587823 -0.004117595 -3.8626138e-05 0.0034710262 0.0010462794 0.0032161027 -0.0002722335 0.0014070002 0.002523189 -0.004099947 -0.002904362 0.00087923463 0.00031137 -0.0046120835 0.001564031 -0.0021954 -0.0048420853 0.0023824102 0.0044456813 0.00012868876 -0.0028399043 0.0037696594 0.00041914685 0.001840374 0.004575479 0.00058131106 -0.00031528156 0.0037481058 0.0016645202 -0.0021827035 0.0027338197 -0.0029487186 -0.0009581023 7.693004e-05 -0.0027444703 -0.0011784618 -0.0031692379 -0.0025995558 0.0042025894 -0.0037215953 -0.00014105812 0.0032249168 0.0035338253 0.0048823645 0.0028619952 -0.00095360493 -0.0037878905 -0.0017590683 -0.0023258906 0.0010877727 0.0010973276 -0.0048996513 -0.00070751784
31 -0.00085746543 -0.0013072353 0.0030535348 0.0015876312 -0.0003195554 0.00086535886 -0.003073982 -0.0047050053 -0.00085669896 0.0017394857 0.0028589163 0.0008282731 -0.0028832417 -0.00019150274 -0.0031155795 -0.0023950683 0.0015404732 0.0023267074 -0.0046528666 -0.0048306757 0.004289139 0.0041729547 -0.0032904767 0.00429878 -0.0004928992 -0.0036651152 -0.0040021306 -0.003718061 0.0009374148 0.00087438757 0.0047382675 -0.003486098 -0.0010862309 0.0033253962 0.0043216255 -0.0029623765 0.0028742244 0.0012609493 0.00024330383 -0.004957964 0.004894452 -0.0033626973 0.002240186 -0.004061796 0.00036907755 0.0032371283 -0.0032840918 0.0019559101 -0.0024777495 0.0031508356 0.002608201 -0.00078243855 -0.0013255698 0.0027370118 -0.004931697 0.003575408 -0.002171921 0.0046383273 -0.0038908678 0.0037769023 -0.0010621701 0.0013395925 0.001292597 7.025059e-05 -0.004225463 0.0012075887 0.0031524822 -0.001847716 0.004594492 -0.0003549247 -0.0032602851 0.0006490741 0.002738553 0.0040658545 0.0016016732 -0.0047334675 0.0023437673 -0.0008474863 0.0018420131 0.00068134116 0.0016849013 -0.004378601 0.00293893 0.0011667698 0.0015864614 0.0009334977 0.00095179863 0.0003809156 -0.0034496074 0.0012764735 -0.0009598546 -0.0024323456 -0.0047647078 0.0030171731 -0.0039862487 -0.0017474485 0.0037808837 -0.00030265283 -0.0019856356 0.0030502286
32 0.002516279 0.0023836894 0.0032603452 0.0020697261 -0.0027121145 -0.004004477 0.0002847705 -9.485893e-05 -0.0005497872 -0.0028824294 -0.003528779 0.00058988575 0.0030315937 0.00052177673 -0.0039809216 0.004907514 0.0009582401 -0.004728518 -0.00071914913 0.00087197963 0.00019846205 -0.0029902821 0.0016013775 0.003280376 0.0021935487 -0.0020895666 -0.001813361 -0.0023321647 -0.0044468986 0.0049674185 0.0042839423 -0.003929427 0.0028076153 0.0036725309 0.00047224807 -0.0023442602 0.0024383161 -0.0043286905 -0.0033540796 0.0039412817 -0.0037464635 0.0035486585 0.0021664687 0.0047457553 -0.00031223847 0.0029927548 0.0011157109 -0.0003609918 -0.000363803 -0.0038493276 0.0042329766 0.0011004503 -0.0047553037 0.0029610144 -0.004154481 0.0027524238 -0.0038099985 0.004729162 0.00177676 0.0004476551 0.0012735575 -0.0031345682 0.00019000238 -0.0021182399 -0.0008114856 0.0016412497 -0.0028555798 -0.0037902778 0.00038905162 -0.003950023 0.00037956797 -0.0007786178 0.00286254 -0.0010710037 0.00011090515 0.003789057 0.0019632946 -0.00055121677 -0.0020885377 0.0025111497 -0.0009772177 0.0025216816 -0.0041051726 0.0016697366 0.0026720213 0.0028419634 0.0037432425 0.0038885167 -0.0032723844 -0.0022200178 0.0031010602 0.003040404 0.0011349944 0.004833482 -0.0015227317 -0.00253048 -0.0011518116 -0.0045040296 -0.00085813226 0.0004455913
33 -0.000802964 0.004683816 -2.55052e-05 -0.0011413961 0.0020567495 5.694758e-05 -0.00447971 0.0038913414 -0.0029041236 0.0021376587 0.0041129496 -0.0045764763 0.0027163262 -0.0025167607 0.004168473 0.0022302102 -0.0033749503 -0.00011964841 0.0026489184 -0.0011388641 0.0027643153 -0.0033840048 0.0010254188 0.00043136394 -0.002804812 0.0011863234 0.0020597088 0.00056322524 -0.0029095064 -0.004049819 0.0020793984 0.0029025301 0.0029593613 0.003178373 -0.004198273 -0.0036580884 -0.0013160049 0.0004950315 -0.0023871015 -0.0041409237 0.0013377056 -0.0023906422 0.00025407784 -0.00018929876 -0.001486538 -0.0036500555 -0.0022500842 -0.0008125515 0.004473906 0.0018509096 -0.0008499981 -0.00201312 0.0024671322 0.004377202 0.0022613918 0.0030390993 -0.0049711433 -0.0030206584 -0.0036130724 0.0021266597 0.0023152912 -0.0046655503 -0.0041640303 0.0041322736 -0.0038347524 0.002632095 0.0025633718 -0.0029470043 -0.0045289835 0.0010075085 -5.6378078e-05 0.004404912 0.0042683007 -0.002954775 -0.0013144326 0.0037792958 0.0021733306 0.0005727587 -0.0005666977 0.004144677 -0.00027597323 0.0019883201 0.0010949397 -0.0027103696 0.0016611745 0.003334622 -0.0007509659 -0.0027370781 0.0027902503 -0.0039151357 -0.0030161173 0.0023568152 0.0020114337 -0.0038432712 0.001001264 0.0044659674 -0.0016969293 -0.001443174 -0.001265598 -0.0024044018
34 0.0025265026 0.00022753468 0.0038877716 0.00019549718 -0.0020270008 0.004445552 0.0026489305 4.0263403e-05 0.004875771 -0.0027475082 -0.0043414137 -0.0013257109 0.0012167967 0.001284848 -0.0037665039 0.0028116084 0.004234813 0.0027991645 0.0015976233 0.0035691625 -0.0022970163 0.0048963437 0.0020821267 0.003754734 -0.00038878992 0.004939235 -0.0008562724 0.004045072 -0.0044721616 -0.0019283937 -0.004884001 0.001788889 -0.002584306 -0.0049867607 0.003703489 0.004931459 0.0046522785 0.004165942 -0.0020580625 0.0041033383 -0.0011868542 4.404597e-05 -0.004838508 0.0017224024 -0.0031853751 0.00020666048 0.002472931 -0.0007235659 -0.003284661 0.00045360252 0.003200245 0.0027608536 -0.00046418374 -0.0037219296 -0.0035499693 0.0011189948 -0.0015039258 0.0039612735 -0.0031339973 0.0035544708 0.0041401917 0.0034854217 0.0033956654 0.0015630759 0.0014927695 -0.0029372738 0.0046992954 -0.0024058716 -0.0041555297 -0.0007720371 -0.0012198859 0.002198549 0.0037925849 -0.0035832708 0.00012333551 0.00080924854 -0.002059911 0.00049463706 0.0022336114 -0.0012339908 4.8905145e-05 -0.0034754337 0.0017914027 0.0005507921 0.0023811837 -0.0042347973 -6.766897e-05 0.0016805637 -0.0005992758 -0.002160639 -0.0011666177 -0.0010288102 -0.0045150993 0.0034031803 -0.0012877362 0.0002921587 0.0025601042 -0.0049008685 -0.0030896943 0.0034156078
35 -0.0012320441 0.00096249115 0.004297481 0.0006684377 0.0010536099 -0.0017691813 -0.00215963 -0.0006033862 0.0037299218 -0.0039181877 -0.004619246 -0.0004556668 -0.0014327103 0.0040023085 0.003943408 -0.0041067293 0.0023797415 -0.0020511954 -0.00091341604 0.0021372978 0.00025581894 -0.0035462892 -0.0037103277 -0.001114866 -0.0002305503 0.0019474588 0.0031961398 0.0012573288 0.0029125158 -0.0040053516 -0.0022928333 -0.00045828475 -0.0038496566 0.0008878503 -0.0012447333 0.0047638724 -0.004342707 -0.002897709 0.00046390668 0.004745394 -0.0008484507 -0.00092445454 0.0024814815 -0.0030895292 -0.00471946 0.0017816965 0.004472729 0.0038469238 -0.0033315928 -0.0008110232 0.0018057395 -0.004645423 -0.003022092 0.004581713 -0.003184986 -0.0010806238 0.0015704939 0.00079741096 0.0015779161 -0.0015913909 0.0038558599 -0.00046445802 -0.0036546772 0.0033026692 0.0012615127 -0.0016274636 -0.0044558537 0.004361097 -0.0012486845 0.0041319337 0.0017815949 0.0049296357 0.00019606948 0.00057826564 0.0006166692 -0.001595381 0.0033397125 -0.00036138855 -0.0011692869 -0.0016123098 0.004491699 -0.0023784465 0.0005407082 -0.0020840836 -0.0020084763 -0.0002937317 -0.0008595609 -0.0041124844 -0.0038642464 0.0022845166 0.00161523 0.0019206158 -0.00038738828 0.0005033384 -0.0023642336 -0.0008832491 -0.0010545091 0.004296515 -0.0047829538 0.004369246
36 -0.0031391657 0.0005815411 0.0029417574 -0.00022100145 0.003009663 -0.000615065 -0.0035987073 -0.0009436733 -0.0046182796 -0.0031292366 0.0030115657 -0.00016983552 -0.004269625 0.004935992 0.0027551395 0.00046139956 0.004678361 -0.0025330733 0.0012862366 -0.002043621 -0.0011271059 -0.0042143855 0.0009778161 -0.0029368955 -0.00400172 -0.0013358104 0.0011361926 -0.0012484686 0.00014737947 0.0029249536 0.0013726116 -0.0009081061 0.0018542116 0.0004637558 0.0038750013 0.0043117693 -0.00017608283 -0.0007427754 -0.004200855 -0.004121971 -0.00076525286 -0.00070624705 -0.00025785575 -0.003835163 -0.0030999673 0.0016784058 -0.0006530415 -0.0025960414 0.0011151736 0.0030105654 -0.0045197355 0.004067166 0.0032056672 0.0048036827 -0.0027821064 -0.001068865 -0.002653595 0.0042642457 0.00400271 0.0047989506 0.0017373855 0.00070168683 0.00125039 -0.001019414 0.004306593 -0.0039414507 0.0015211301 0.0043383343 0.0041692154 0.0029205522 0.00291898 -0.0007416024 -0.00033459952 -0.0039785644 -0.004770054 -0.0001291968 0.003379397 -0.00024020486 0.0004446162 -0.0033744317 -0.0045734504 -0.0044413717 -0.0012989098 0.00040039234 -0.0020075368 -0.001081096 0.004655458 0.0026514973 0.0020887367 0.0023902962 0.0046217227 0.00033753458 -0.00434795 0.0017133937 -0.004267308 -0.0010909266 0.0038275803 3.3546705e-05 0.0025493712 -0.0011576987
37 -0.0009382181 0.0037108706 -0.00042179646 0.0048483713 0.0018116017 -0.002911912 8.4054656e-05 0.0049098767 0.004618519 -0.0022334396 -0.0010565803 -0.0018342286 0.0033214502 -0.0017410123 0.0038042376 0.0047773374 -0.0021506762 0.0047932165 0.00047186436 0.002091989 -0.0039181104 0.0039638216 -0.0033257795 -0.003193858 -0.0030491264 -0.0036477959 -0.003711434 -0.0037951677 0.0017957948 -0.004313576 0.003984429 -0.0044402764 0.003424582 0.004532762 -0.0042890967 0.00095806364 -0.001270138 -0.0046961857 -0.0041534137 -0.0036060815 -0.0038920313 -0.0042402577 0.003130233 -0.00097651733 -9.210594e-05 -0.003327819 -0.0027854543 0.0017718808 -0.004972472 0.0014394261 -0.00097287167 -0.00401399 0.00070195505 -0.0043513463 -0.0020011335 -0.0033424902 0.0034065712 0.0026271571 0.0048344946 -0.0048165936 -0.0045619933 -0.004921428 0.003826039 0.00019484758 0.001976835 -0.0029839193 -0.0028589838 -0.00057319505 0.0011580451 0.00408106 -0.0024720025 0.0027040462 -0.0011931902 0.0045303814 0.0039328793 -0.0042856596 0.0011034585 5.354546e-05 0.0049336115 -0.0012950199 0.002974486 0.0017837794 -0.0021409285 -0.0001923712 0.00077516865 0.0022261888 0.0012968057 0.0036597056 -0.0033162297 0.0049190708 -0.0027047216 -0.0032282663 0.0022139964 0.004491533 -0.001787002 -0.0010361723 0.0039379755 -0.0022247613 0.0015453123 -0.0027820915
38 0.0004006629 0.00037781848 0.00243633 -0.0047182124 -0.002188809 -0.004916692 0.0005670502 0.002542873 -0.0030992024 -0.004280404 -0.004953244 0.0004836889 -0.0012788952 -0.0031792242 0.0004072683 0.0042194333 0.0019306666 0.002699546 -0.002636578 0.0026847054 0.003762831 0.0015795897 0.00016824063 0.0009041922 0.0021594581 0.0011743805 -0.0038084285 0.00079370197 -0.0042418544 0.0029671146 0.00035342528 -0.0032335024 0.0012800382 -0.000809412 -0.0024988155 0.004405655 -0.004373646 0.004510291 0.002169935 -0.002543378 -0.0032901294 4.485529e-05 -0.0049856566 0.00038473587 -0.0012529665 -4.8391987e-05 -0.00069565 0.0049804524 0.0033146106 -0.0038944725 -0.0029717658 -0.00445746 -0.00042991526 0.003093047 0.0034721615 0.003793411 0.003917316 -0.0038172696 -0.00082108146 0.0023053843 -0.0012153941 -0.004192812 0.0027891165 -0.0007107211 -0.0011839867 -0.004868846 1.6874634e-05 -0.0006408058 -0.0011790895 0.004656558 0.0023737121 -0.004811396 -0.00017316686 -0.00084419735 -0.0041698352 -0.0038864391 0.0018783389 -0.0039959853 -0.0030144935 0.0046111513 0.001515931 0.000957347 0.003883861 -0.0038139275 0.00426552 0.004684075 -0.0021435446 -0.0013934963 0.0003322102 -0.0028571594 -0.004231328 0.0044311658 -0.0017671161 -0.004777781 0.00065863505 0.0011086855 0.0015363437 0.0016935342 0.003052135 -0.0011056315
39 0.0015194435 -0.0027265255 0.0035593016 -0.0007530595 0.0015028198 0.0045322413 -0.0047432655 -0.00087730354 0.0013464885 -0.0038014709 0.0028167926 0.0041832346 0.0030915206 0.003900404 0.0011834139 0.002331472 0.0046646614 -0.0030435096 -0.0026208418 -0.0036383295 -0.0005711494 -0.0002005957 0.00031161588 0.0045448104 1.8697232e-05 -0.0045978217 0.00084765395 0.0017022323 0.002942523 0.0037175687 0.0009653908 -0.0041528232 -0.0015506381 -0.0030263346 -0.0020650725 -0.001869384 -0.004460846 -0.0007089381 -0.0018331187 0.0018450455 0.0026103728 -0.002670074 -0.0043630796 0.0011853101 0.004813593 0.0033841236 0.0015255762 -0.0042391825 -0.0007288526 -0.00453553 0.002894287 0.0041549383 0.00024198554 -0.00093006296 -0.0043244287 0.0015467466 0.004544894 -0.002933275 -0.0013033294 0.0032563666 0.0026162355 0.0014028959 -0.0019953542 -0.0001553921 4.8148446e-05 -0.00025636563 -0.0023684048 -0.00288293 0.0032320675 0.004863726 0.0008749352 -0.0047053383 0.0040697698 0.0045587886 -0.00035611354 -0.0029011208 -0.003399235 0.00010488462 0.0035789711 0.0003597187 -0.0030722553 -0.0040702564 -0.003925943 0.00089581916 -0.0038006562 -0.0015271062 -0.00465173 -0.0015828037 -0.0025595229 -0.004505945 -0.00033062976 -0.0025288933 0.0025264113 -0.0009472058 0.001701111 0.0018781405 -0.003680598 0.0011692224 -0.0020419 0.0003439244
40 -0.003934424 0.0008001118 0.004908071 -0.0037782872 0.0037976932 0.0031287894 0.004818131 -0.0020995014 -0.0020944155 0.0012297165 -0.0040146895 0.00033769896 -0.0019822973 -0.001586067 0.0036422238 0.00017521344 0.0017591226 -0.002394789 0.0004476728 -0.0046952227 -0.00330398 0.0041361535 -0.004158128 -0.0034783203 0.0015134146 0.0014400063 0.00042059366 -0.0014001888 0.0014385991 -0.0011789566 -0.004028167 -0.0044730157 -0.0048168525 0.0015372983 0.0038578948 -0.00073207496 -8.809613e-05 0.0013598511 0.0029593809 -0.004859904 0.002295948 -0.0012267102 -0.00047166273 0.004107669 0.0037494944 0.0034996774 -0.0011890542 -0.0041698604 0.00035874685 -0.0012372523 -0.0015899909 -0.0036945676 0.0028257528 -0.0011452192 0.0030917954 -0.00482582 -0.00042620813 0.002718336 0.00012374343 -0.0021679264 -0.0047826325 -0.0031905388 -0.0010630391 0.0024288772 0.0023510135 0.0042091897 0.0006802697 0.00073899096 0.0008890992 0.0038545048 -0.004197379 0.0016161567 -0.0033377768 -0.0048527643 -0.0039813225 -0.00041305833 0.0035615927 1.6518869e-05 -0.00088992296 0.0027235048 0.0028121253 -0.0025197119 -0.0023242997 0.002770693 -0.0013821553 -0.0008594282 0.003606108 0.0023845308 0.0017957408 -0.0035486405 -0.0016689259 0.0023276065 0.0033086445 0.0049845884 0.0026020822 -0.00039546797 -0.0017312944 -0.0027143662 0.0014467649 0.0035225805
41 -0.0025315576 -0.0008157105 -0.0012286454 -0.002165997 0.004952172 0.004828305 0.004994951 -0.001544758 -0.0041723484 0.0034426711 -0.0001331754 0.0024622069 0.0019534635 0.004019416 0.0005461918 0.003646925 0.004411026 0.003147523 -0.0030020105 -0.001361361 -0.0018305038 0.0024330486 -0.0033769095 -0.0037432397 -0.0036853198 -0.0019198125 -0.0028641354 -0.0030680918 -0.0007462548 -0.0011580794 0.001974722 0.0036931904 -0.0028721285 0.0014452063 -0.004236861 0.0006202613 0.004127547 0.00052637886 -0.0048108664 -0.0021750347 0.0012452765 -0.002678728 -0.004329432 6.463239e-05 0.0028409678 -0.0004923409 -0.0034197662 0.0023044907 0.003376781 -0.001188162 0.0022571497 0.0041256286 0.00018882053 -0.0040368526 0.004204724 0.0020968532 -0.0015458239 -0.004682554 -0.0037757396 -0.0031735455 0.0043546325 0.000992619 -0.0049352357 0.0030131135 -2.2282824e-05 0.001872635 -0.0010567908 -7.9980586e-05 0.0049349023 8.229725e-05 -0.004664113 -0.00033029867 0.00065812515 0.0011086576 0.0027235295 0.0007275017 0.003977892 0.0017666696 -0.0027126335 0.0020660986 -0.0022380494 -0.002711011 -0.0039419634 -0.0025104438 -0.0029743372 -0.0013484054 -0.0048349267 0.0045036003 0.0012462614 -0.00060362415 8.802721e-05 -0.0018765323 0.0013273121 0.003153164 0.0024415324 -0.00041156076 -0.0018768245 -0.00011123018 -0.0008069752 0.00027049473
42 0.0017443169 0.00018011453 0.0006149453 -0.0018852954 -0.0031412344 0.002266333 -0.00126728 -0.00037090667 -0.0008878219 0.0046232855 -0.00499074 -0.0035249316 -0.003748654 -0.0024879633 -0.001140431 -0.0024725092 0.0030577704 0.001155179 -0.0046778815 0.0020347708 0.0030536084 0.0047834804 -0.00054846006 -0.0048369337 0.0010587494 0.002032184 0.0039175786 6.798934e-05 -0.00257525 -0.003367719 -9.902613e-05 0.0008029733 -0.0047084317 -0.0012617451 0.0027978336 -0.0046557463 -0.0027401643 -0.0020026618 -0.0035276245 0.0011979612 -0.003369853 0.004640448 0.0025468636 -0.0014208101 0.00039924076 -0.0018144606 0.0039310623 0.0036783721 -0.0015521026 0.0048792223 0.0009050118 0.002098943 0.0028777532 0.0040699467 0.002656538 -4.105922e-05 0.0027808459 -0.0028153968 -0.0026844244 -0.0026999211 -0.003372782 -0.0035357266 -0.00027951738 -3.7016813e-05 -0.0049047205 -0.0007247431 0.004300696 -0.001593241 -0.004210826 -0.0020162452 -0.002641952 -0.0027366965 0.0016942192 -0.0022233676 -0.0047779293 0.0011465829 0.001644413 0.0013868315 0.0031376379 0.004626789 0.001544991 -0.0025064892 0.004027227 0.0025405148 0.0031263717 0.0015708054 0.0013894159 -0.004032073 0.0008598892 0.00031236187 0.001449001 0.0029092534 -0.0035404903 0.0017675655 -0.003414757 0.004779117 0.0017091902 -0.0040448466 0.002689513 0.002598524
43 -0.0039819716 0.003720304 -0.00030960282 -0.00041197054 -0.0038114695 -0.00024666777 -0.0032286835 -0.00467479 -0.0024921864 -0.0022918044 0.0040234523 -0.0017915522 0.0034038117 0.0019196589 0.0020853565 -5.1283278e-06 0.0036077974 -0.0011078054 0.0012650052 -0.0004376201 -0.0010825624 -0.00020691287 0.0032377345 0.00086896075 0.0020580012 -0.00094684586 -0.0027635645 0.0037390385 -0.0025172776 0.0012073051 0.0018090089 0.0019525271 0.0007218383 -0.0020931547 -0.004439177 0.0046091657 -0.002837457 -0.00079339044 -0.001367023 -0.0005976283 0.0013551912 -0.0048595998 -0.0024858462 -0.0047257957 0.0010542069 0.0047109686 -0.0014202504 0.0011656703 0.003269774 0.0026336657 0.0045584003 -0.0026753717 0.0039957995 0.0012693638 0.0044297213 0.0017035995 0.0005157613 0.0041919956 -0.0013628905 -0.0034436297 -0.0027256948 -0.003193267 -0.0015927749 -0.0011591411 0.002004804 0.0031448985 -0.0021441162 -0.0013936781 0.0022192542 0.00037025288 0.004737435 0.00488575 0.0009289114 0.0017250273 0.00066381646 0.000105513725 0.004308801 -0.0030794954 -0.003565849 0.0020579598 -0.00477941 0.0044026813 0.0002372223 0.0012980448 -0.0005400642 -0.0004331614 -0.0013232774 -0.0023035002 -0.00025495188 -0.0046454887 -0.004354149 -0.0024816303 -0.001018201 0.0044723013 0.0015037195 0.00045213103 0.0017853226 -0.0012438726 -0.0021851545 0.0024952502
44 -0.004324839 0.00039251102 -0.0021884125 -0.0034733342 -0.0034016334 -0.0046590357 -0.0031561803 -0.004886341 0.00019413 -0.0034917505 0.0017263321 -0.0031902497 0.0010077418 0.0004268582 -0.003336712 -0.00038807467 0.004303186 0.00044175563 0.0011018026 -0.004063945 0.0003750436 -0.0022021143 8.345721e-05 -0.00020060362 -0.0030417007 -0.00063905166 0.0011185287 0.0005406481 0.0048886547 0.0009885179 0.0005083005 -0.0031465553 -0.0033772546 -0.0010784953 -0.0039232997 0.0029630847 0.0025411719 0.0042464286 0.0029760078 0.0034536906 0.0038134651 0.0023683095 0.0020501278 -0.0015338785 0.0010151295 0.0034147669 -0.0029857282 -0.000106783584 0.0048021935 -0.0043956363 0.0016030455 0.0019958615 0.001017971 0.004684096 0.001223166 -0.0017389357 -0.00013808208 -0.0031660735 -0.0041712797 -0.0026391707 0.00040805712 0.0045841457 0.0044033425 0.0023926613 -0.0014274281 -0.0034288084 0.00063557783 9.501632e-05 0.00024476042 0.00208495 -0.00040355977 0.00021053245 0.004594744 -0.001367491 0.003742503 0.0012762235 0.0039413655 0.0017371122 -0.0010642223 0.000884769 -0.0040950184 -0.0012627256 0.003823163 0.00075137196 -0.00451685 -0.0014400948 0.002950768 0.0005134139 0.002381497 0.004153651 0.0030783433 0.0022996054 0.001567388 -0.00076306146 0.004410809 0.0020662071 -0.004821093 -0.0032816725 -0.0017301214 0.0018712156
45 -0.004583728 -0.002463998 0.0027934145 -0.0034304047 -0.0010410505 0.0029965276 0.0045926943 0.0042725457 0.0033416664 0.002353732 -0.0043974165 -0.0017579156 0.0028711418 3.4621917e-05 0.00071826857 0.003801562 -0.0025950877 0.00034475978 0.00073463935 -0.0023384832 -0.0008543818 -0.0043722643 0.00039774226 -0.0043211156 -0.0017897058 0.00262674 -0.0038670902 0.0026922952 9.432435e-05 0.004882727 -0.004388495 0.0025464105 -0.0015109032 0.003227233 -0.0049342234 0.0019161142 0.0023726393 -0.002958154 -0.0008794842 -0.001156267 0.0028057052 0.004102486 -0.000912413 7.652026e-05 -0.004228649 -0.0012988842 0.0043306276 0.00079827895 -0.0007354473 -0.001025246 0.0014059125 -0.00030636555 -0.0043686884 -0.002648276 0.00073308265 0.0045429105 0.0017321771 -0.0026052606 -0.0015650361 0.0016521364 0.004236766 -0.0043585673 0.0025674677 0.0016757273 0.0039060684 0.00076161046 -0.00039896602 -0.0042586387 -0.002575318 -0.004970338 -0.004435995 0.0041041905 0.0041148104 0.0042655766 -0.001955552 -0.0032269685 -0.0038878284 0.003363926 0.0015748967 0.0039415155 -0.0036769926 0.0006754566 0.0025779395 -0.004683151 -0.002567501 -0.0009441995 0.0020493274 0.004516281 0.0024814801 0.0035787644 0.0009788484 0.0005618362 -0.0044382117 -0.0015408802 0.0035778098 -0.004135977 -0.004056877 -0.002261244 -0.0038214223 -0.0049627945
46 -0.004279411 -0.0019174642 0.0008895062 0.001266899 0.004237051 0.0036107441 0.0017283596 -0.0019920052 -0.0047410554 0.0040114494 -0.003057742 -0.002955684 -0.0015662967 0.0022479468 0.0012150584 0.0037554093 0.0014649616 -0.0003849836 -0.0026489065 0.0046047764 0.0005970425 -0.0012236566 -0.003908504 -0.0017221922 -0.004527026 0.004756131 0.00069424696 0.0038945694 -0.0016512191 0.0023190165 0.0033896146 0.0010824096 0.0044572726 0.0040726047 0.001580162 -0.0010346891 -0.0042563877 -0.0023647982 0.0002821111 0.0038296254 0.003434645 -0.0016600143 0.0005298569 -0.0048500597 0.002719154 0.004144338 -0.0002917801 -0.00057246676 0.00452339 -0.0007718783 -0.0031229788 -0.00031943992 -0.0048381113 -0.00047027832 0.0046001943 0.00068917917 -0.0037642645 0.0013202857 0.0008189939 0.00088655995 0.0021101278 -0.0018163992 -0.0028170925 -0.0033904058 0.0015335865 0.003012105 -0.0010806834 -0.0009664828 -0.0027152537 -0.0011442064 8.643372e-05 -0.004069071 -0.0048199557 0.0041411854 0.0027943044 0.0013834587 0.000250733 -0.0044407537 -0.003931447 0.0011268286 -0.000670095 0.002022345 0.0025846623 0.0004903842 0.004639148 0.0009248904 0.00088207703 -0.0010572304 0.0048991125 -0.00038586184 0.0047614286 -0.0025805181 0.0005189432 0.0032222783 0.0022697179 0.0040457547 0.00094853994 0.0024244133 -0.002374923 0.0027057324
47 0.0034897001 0.0017122272 0.00015316252 0.0036917832 0.0036150003 -0.0022365577 -0.0011495142 -0.0015004885 0.0027404414 0.001256126 -0.0015049386 -0.0029989409 0.0045299027 0.002468259 -0.0029490918 0.002642002 0.004100362 0.0028883005 0.0030149836 0.004806973 -0.0040638046 0.0016865428 -0.00014017895 0.0016152612 0.0025832127 -0.0026425952 -0.00075517874 -0.0020180773 0.003213795 0.0027736132 -0.0025965858 0.0049765 0.004324671 -0.0039524995 0.0012362367 -0.0031903558 -0.002416519 0.003159305 0.0040015765 -0.0005919952 -0.0045145256 -0.00056198006 0.00360528 0.00191055 -0.0018485885 -0.0028601228 -0.0046487255 0.0011490202 -2.049189e-05 0.0039965184 0.0015453827 -0.004835391 0.002981415 -0.0032412934 0.004348331 -0.0032761984 -0.0018703269 0.003997011 0.0015921365 0.0001671426 -0.0018473719 0.00038693473 -0.0009665359 0.003978136 0.0032430636 -0.0038490193 0.0043231677 -0.002251854 -0.0013694579 -0.0042721285 0.00278666 -0.0041391784 -0.0037399577 -0.0024240904 -0.0045866226 0.0008445652 -0.0031057703 3.3814926e-05 -0.003043422 0.0006818692 0.0014744718 -0.001469872 0.0030149724 -0.0033163975 -0.00075654034 0.004015958 0.004369377 0.001042841 0.0012366525 0.0022859387 -0.0046273367 0.004926366 0.004438538 0.0022146832 -0.0015693395 -0.0047668675 -0.0022531378 0.0026716362 -0.004239585 0.004277695
48 -0.001457293 -0.002931805 0.00078973034 -0.0034053933 -0.0005176002 0.0008300794 0.0028618947 -0.0004989691 -0.003756953 0.0007213382 -0.002943561 0.002079768 0.0018586055 -0.001104427 0.001146459 0.002961249 0.003716574 0.00040128827 -0.0037817336 -0.003520416 -0.0014302861 7.8815036e-05 0.00062243594 0.0037776176 -0.0018446774 0.0035238126 0.0022757626 -0.0039240085 -0.00014450727 0.0044503417 0.0038358131 0.004403144 -0.00032724906 0.0049627647 -0.0039721234 0.0045821173 -0.004343217 0.0043478888 -0.002169054 -0.0019291562 -0.003709949 -0.0016874718 -0.0019920117 0.00019522151 -0.0009625242 0.0004378152 -0.0020623892 -0.0016918294 0.0041956846 0.00028600078 0.0034142928 -0.0037744287 0.0014262171 0.0016983147 0.0037440145 -0.0036686289 0.0018476746 0.0028663445 -0.0045234594 0.0049522277 -0.0010920917 -0.0033577327 -0.0022363178 -0.00027555274 -0.0049244533 -0.002264418 -0.003203523 0.0009420747 -0.0021965927 0.004104439 -0.0044330475 -0.0043609017 0.004096279 -0.00059004314 0.0046562804 -1.8524006e-06 0.00497575 0.0007969467 -0.0007110066 0.004571533 -0.0015763901 -0.00020622928 -0.00043453043 0.0004435093 -0.0023178929 -0.00062241126 0.0048530055 0.002027674 -0.0012238615 0.003631251 0.00094789965 0.00417485 0.004998572 0.001318783 -0.002537449 -0.0046525244 -0.00036782725 -0.0037605874 0.0026956033 0.0040719016
49 -0.0025498848 0.0028672935 -0.00042303558 0.0032056216 -0.00027076947 -0.002331587 0.003798644 -0.0041207806 0.0040158955 0.0005926895 -0.0007636938 0.0047467807 -0.001654191 0.0039522303 -0.00064730784 0.0021768953 0.0010471796 -0.0036290002 0.002455573 -0.004505666 -0.0036254113 -0.0027715373 -0.0037910866 0.0036022235 0.003929519 -0.0030189226 -1.3463665e-05 -0.001425131 0.0048484625 0.004716562 0.0011815107 0.002905651 -0.002626844 0.00057579577 0.0009416221 -0.0029965877 0.004172585 -0.003615064 -0.00091012055 0.0033098925 0.0025319657 -0.0025607294 0.0023739147 0.0007416308 0.0025816327 -0.00074068364 -0.0009697871 0.004890059 -0.0026312422 0.0016057501 0.004311381 -0.0043854057 0.0025763898 0.0046594264 -0.003462947 -0.004874481 -0.0034605884 -0.0022884523 -0.0038606254 -0.0018885296 0.003850405 -0.001921739 -0.001062749 -0.0013834853 0.0029408475 -0.0033513252 -0.0028938923 -0.00015463307 0.0013869749 -0.0004747114 -0.0015450139 -0.0017972749 -0.004830982 -0.0026878256 0.0011471752 -0.0012785441 -0.0017732489 -0.003776962 -0.0022350752 -0.0016949307 -0.00088752015 0.00058448594 0.0024800445 0.0036816718 -0.0007245671 0.00433077 -0.0026735954 -0.0007511764 -0.001925441 0.0048409374 0.0024069892 0.0006094896 0.0022272668 0.0029290477 -0.00032910146 0.0049548475 0.0017933501 0.004750698 0.00062284153 -0.0046311263
50 -0.0010098028 0.0025585638 0.003118433 -0.0031476999 0.0027183383 0.003396104 0.00050618127 -0.00048275758 0.0047713974 -0.004857732 -0.004672753 -0.0011719477 -0.0011871362 -0.004386378 -0.001520254 -0.0010971916 0.004591423 0.0014217352 0.0022410084 0.0018488695 -0.002624169 0.0030207653 -0.0024238233 0.0027928753 -7.541245e-05 -0.0029086934 -0.00078106066 -1.5493017e-05 0.0022132634 0.0049223835 -0.0045221555 0.0012771599 -0.0011213685 0.0032456955 0.0010843007 -0.00065455725 -0.0037554572 -0.004656183 0.0031898478 0.0020268029 -0.0033817773 0.004819111 0.0046365494 -0.0033654713 -0.0027495038 0.00062491186 -0.003279386 -0.0008037733 0.003586011 0.001106299 0.004594856 -0.0046373243 0.0014129835 0.0029249405 -0.0012987345 0.003380863 -0.0014886134 -0.0024445723 -0.0015163128 0.0032306323 0.0035983836 -0.0045229536 0.0013376796 -0.002163335 -0.0009083045 -0.004969586 0.0032660766 0.0016119205 0.00036378065 -0.0036040074 0.0011896854 -0.0012787026 -0.0047328523 0.0035880469 0.0018283688 0.0028393874 -0.0017936253 -0.0018980938 0.003928342 0.0032911925 -0.0042967503 -0.0031074416 -0.0045138183 0.0027075717 -0.0045533255 -0.004315852 0.004156718 -0.0046117855 -0.0031683606 -0.00016366644 -0.0011696785 0.0041970164 0.0039271545 -0.00015542796 0.0024111918 0.0009025461 0.004382452 0.0043167025 -0.001275437 -0.00036215503
51 -0.004205805 -0.0038825076 0.00027264003 0.0024105972 -0.0037808502 -0.0012194717 -0.0036061476 0.0031730635 0.0028742421 -0.0011353672 -0.0019056469 -0.0018150955 -0.0035743807 -0.0005329442 0.0048511913 -0.00017891685 -0.0015997349 0.004922023 8.1961975e-05 0.0039537735 0.0006223088 0.0037667425 -0.0023080627 0.0022391086 0.0012351493 -0.003924188 -0.004233639 -0.0020815253 -0.0029965055 -0.001709566 0.0020298944 -0.0018425244 -0.004109892 0.0045154775 -0.0020581912 0.003208951 -0.0025593287 -0.0015163147 0.0038634911 0.0015311292 0.0022309716 0.0012194659 -0.0038655228 -0.0003281557 0.0026862673 -0.0044105733 0.0035393545 -0.003031072 -0.0044032065 -0.004004565 -0.0013109129 0.0040712263 -0.0043629897 0.00463307 -0.004717774 -0.0031729233 0.0028884877 -0.00090115424 -0.0012548734 5.495781e-05 0.0020302534 0.00022343919 -0.0009993673 -0.0047352207 0.0030158572 -0.003410412 -0.004428993 -0.002204492 0.0014146403 -0.0025263987 -0.0037631951 -0.003919039 0.0014822362 -0.00088716764 -0.004119973 -0.0044727437 -0.0038248294 0.00036591524 -0.0025323867 -0.0037700336 0.0031491276 5.9418846e-05 0.00021530082 -0.0016135685 0.0034247693 -0.0014187454 -0.0003828043 0.004202988 -0.0005612946 -0.0025599909 -0.0033759659 -0.0046213483 -0.0036990065 0.0013629645 -0.0019886796 0.003152227 0.002459216 0.000880403 0.0003060568 0.0013574334
52 0.0016071354 -0.0024281186 0.00015445892 0.00064496044 -0.0014698117 0.0018930952 0.00019590743 -0.0047076223 0.0019793292 0.004290685 -0.0014164012 -0.0008595488 -0.00381895 -9.334274e-05 -0.0024793367 -0.003701952 -0.0039399033 -0.004586882 -0.0018968617 -0.0032041 -0.0035493386 0.0012283451 0.004219599 -0.003543498 0.0014748815 0.004932995 0.0033145864 -0.0007187044 -0.004264026 0.00070631085 -0.0045132367 -0.00022123149 -0.0015973526 0.0023870282 0.0037168926 0.0022480972 -0.0048841177 -0.0016948318 -0.0017137867 -0.00021617115 0.0006297035 0.0007893904 0.00018172385 0.0001924499 0.001297628 0.00056250906 0.0019678092 -0.004924141 0.0030681416 0.0014886237 0.0015550596 0.001886481 0.00089801056 -0.0020078742 0.0012567923 -0.0030305707 -0.0015683435 -0.003037815 0.0024935273 0.0018239748 0.0016553337 -0.00014555594 -0.0005267416 0.0019141627 0.0044409884 -0.00088297017 -0.00057838904 -4.805159e-06 0.0037165973 -0.0012598473 0.0020408062 -9.2295464e-05 -0.00405087 -0.0022822015 0.0043218667 -0.0022335886 -0.0037644682 -0.0042581 -0.003303235 0.0049292753 0.0006366288 -0.0027072572 0.0012995536 0.0025995243 -0.0017794222 -0.0027059198 0.004530059 0.0043807654 -0.0019940143 -0.0004859171 -0.0038184929 -0.0026170127 0.0012740493 0.0021996167 -0.0028284078 -0.0037301588 0.002126541 0.0030483026 0.0031703059 0.00471633
53 0.004802933 0.0024697767 -0.00032221992 -0.0010804995 -0.0038777404 -0.004384228 -0.0017869396 -0.0029371642 0.00396917 0.0038113166 0.00045021344 0.0043292213 0.0032306695 -0.00086728623 -1.5459489e-05 0.0028728563 -0.0003708466 0.0007073446 0.003397829 -0.0039839884 -0.0028250515 -0.003787113 0.001721987 -0.004383183 0.004186156 -0.004686831 0.0037815608 -0.0029619366 0.0033118222 0.0047581764 -0.004474924 0.0003101183 -0.0007776646 -0.0024655317 0.0033358969 0.0016222731 0.002683131 -0.0010678242 0.0014096652 -0.0039074547 -0.00014948053 0.0035703257 -0.0035294115 0.0023550522 -0.0007303483 -0.004664283 -0.003160786 -0.00074908184 -0.0028205877 0.00014306232 -0.0020477776 0.0015884284 0.0016773217 0.0041718856 0.00029214332 -0.000606135 0.0048772832 0.0018010782 -0.0010645045 -0.00039332174 -0.0022134464 -0.0018664033 0.0035803104 -0.003825429 0.0016196943 -0.0012645561 0.000545369 -0.00044324994 0.0045302594 0.0026686 0.004212536 -0.0026938515 -0.00051492825 -0.0022916233 0.0005275076 -0.004802476 -0.0022961842 0.0005548955 0.0025036917 0.00096058287 -0.0047786324 -0.0021670663 0.0007514055 0.003951625 0.0025924305 0.0017607468 0.004340484 -0.0044691116 0.004453035 0.0048661744 0.0023581581 -0.0011166059 0.0045175394 0.003074714 0.0018149996 -0.0039794743 -0.0022772092 -0.0022752003 -0.0022529142 0.0025975471
54 7.2012655e-05 0.00036365492 0.00010217959 0.0040865876 -0.0016475278 0.00012646243 -0.00029234122 -0.003796124 0.0038183508 0.0029287972 -0.00071311835 0.0012372364 0.0037666867 0.001985238 0.001986376 -0.0022194863 0.004697769 0.0002386393 0.0046485867 -0.0023759592 -0.0038896906 0.0034176316 0.0023774188 -0.00025348924 0.003946716 -0.00087432563 0.0020670928 -0.0019308536 -0.0009562457 0.0035844026 -0.0032503307 -0.00071366783 -0.0022980368 -0.0042453483 0.0047112014 0.0029689157 -0.0033886235 -0.0036469018 -0.0035358637 -0.0034588974 -0.00395426 -0.0029708522 0.0033558598 0.0014771139 0.00010667322 0.0018170606 -0.003256188 0.0019409871 -0.0038481555 0.0044502933 0.0006814366 -0.0017070335 0.0032001995 -0.0013123136 0.004183717 0.0029366417 4.1932333e-05 0.0009317612 -0.0037297409 -0.0033655893 0.003148106 -0.0015291839 -0.0009219749 -0.00055477256 0.004733747 0.0028059916 0.004014168 -0.0049969754 -0.004803863 -0.0014093285 -0.004661139 -0.00063344603 0.0012181853 -0.0022355372 0.00015191967 -0.0005985396 0.004599333 0.004437995 -0.0018902498 -0.0031114207 -0.002328896 -0.0039484566 -0.0044271913 0.0023682099 0.0012804847 0.0011162548 -0.004045353 0.0037104348 0.0031675724 0.0007266165 0.0034422083 0.0039232913 -0.0040803617 -0.003177158 -0.0018853007 0.0012369268 -0.0013675373 0.0018103044 0.0006444119 0.00031618122
55 -0.00086793257 0.0006288476 0.003502423 0.0024614618 -0.0006101262 -0.001392998 -0.001922183 0.00017908588 -0.0014563245 0.0014792453 -0.0026520353 -0.00060494756 -0.0033231347 -0.002453069 0.0025119577 0.0046556685 -0.0009441157 -0.0033055628 0.0022652955 -0.0029993944 0.003061247 -0.0021338582 0.004380783 -0.004310218 -0.0012808014 0.002847813 -0.0044465913 -0.0025684165 0.004304643 -0.0030294573 -0.002223361 -0.00344846 0.00061385985 0.003562444 -0.004409017 -0.001802067 0.003748021 0.0014313394 -0.0044415174 0.00477748 -0.0012221776 0.004073615 0.0044549545 -0.0019069738 -0.00059356587 -0.004052274 -0.0047402233 -0.0031812887 -0.0028633724 0.0025172853 -0.00409766 0.0006114929 -0.002362215 0.0015690685 0.004255579 -0.002307546 -0.0016036523 -0.002997591 -0.0035595447 0.0027333992 -0.00072526745 0.0032932041 0.001096209 -0.0012507569 0.000658046 3.2890588e-05 -0.003129229 0.0024298541 -0.00094374456 -0.002010225 -0.00010920828 0.001834733 -0.0019567132 0.0012309509 0.003037828 -0.0009765946 0.0027509676 0.001015231 -0.0015855986 0.001668192 0.0013649166 -0.0021624332 0.00025565876 -0.0036437355 0.0048116157 0.0020748223 0.00011300668 -0.00092823245 -0.0032337874 0.0015335451 0.0026837294 0.00017274218 0.0013414556 -0.0017767805 0.004731049 0.002792235 0.0020670719 -0.00046523847 0.0014617736 0.00015487848
56 0.0023955414 0.0040784935 0.004233457 -0.003488516 0.0013280087 -0.0022879117 0.0014683395 0.0018291962 0.0014845203 0.00044958154 0.0040679323 -0.0022830635 -0.0032805032 0.0020547034 0.0041342303 -0.0026219129 0.0002671755 -0.0010729148 -0.0026625078 0.001638677 -0.00013710558 -0.00062846905 0.0006604218 0.0038497373 -0.0016582983 0.0015997817 -0.003712324 0.0004758602 0.0031441823 -0.001465237 -0.0046936646 -0.002299655 -0.00063665584 0.00021721888 0.0026934487 0.0036551896 -0.0020377613 0.00017583137 -0.0010061543 0.004207371 0.0047721313 0.0021111546 -0.00042033195 0.0032219877 0.0017833058 0.002495573 -0.0015181659 0.0022252141 0.00179904 -0.0033633518 -0.002358771 -0.0024266958 -0.0026250433 0.001747081 -0.00045704283 0.004358273 -0.0040439353 -0.0008667945 0.0025777067 0.001426727 -0.0015649367 -0.0043934984 -0.00052463403 -0.0040067825 0.004818878 0.000556699 0.003413612 -0.004017111 -0.004889663 -0.0004314226 0.0035380954 0.0018908377 -0.0013828885 -0.00417137 -0.0005348879 0.0035485877 0.0038995352 -0.00079268496 0.002566713 -0.0035128605 -0.00041666767 0.0008793478 0.003191892 0.0031640278 -0.0046438766 -0.0026177638 -0.0046417993 0.0031063547 -0.0032575398 -0.0047995765 0.0007417933 0.0011001574 -0.0045743347 -0.0022292477 0.0036784299 0.002703507 0.004821348 -0.00011759205 0.004802227 0.00040218886
57 0.004218287 0.0034535741 -0.00365641 -0.00038882066 -0.004732545 -0.003868787 0.0037704268 0.0027978234 -0.0036924402 -0.0036760336 -0.002295642 0.0037276745 0.0031498494 0.0016294639 0.00317177 0.0022187317 0.0010103271 0.0046642823 0.0018595839 0.00040053017 -0.004205199 -0.0032693224 0.0020553954 -0.002834254 -0.0022909795 0.0018905848 -0.002156689 0.004416718 -0.0014676475 -0.001889637 0.00032252353 -0.0027134132 0.00025473302 0.0032844087 -0.0017007845 0.004551526 0.00010233093 0.002426282 0.003194254 0.003446661 -0.0022186928 -0.0039694346 -0.004958311 0.0044820914 -0.0034809487 -0.0037559662 -0.003402153 -0.00225361 -0.0049386183 0.0042065363 0.0032631997 0.00024210941 0.004312723 -0.0045195757 -0.0032902262 0.002577112 0.00043635257 0.0019092122 -0.0047204397 -0.0027098446 0.0033697337 -0.0044144588 -0.0031102938 -0.001116656 -0.0027639132 0.004839587 0.0020984625 0.0004253434 0.003952138 -0.0010598879 -0.0020049368 0.0020267153 0.0017479495 -2.225861e-06 -0.0043546194 -0.0008215592 -0.003499215 0.00090131164 0.0023319838 -0.0026488851 6.5228436e-05 -0.0033516036 -0.004651227 0.0003214376 0.0045114122 0.0010475623 0.00044679642 0.0045275316 0.0037926212 -0.0038378877 -0.0006767148 0.0049198736 -0.0033053022 0.00029354682 -0.0023793376 0.0012673042 0.0024486328 0.004334283 -0.0023683982 -0.0039661126
58 0.0023964643 -0.0049436367 0.00028765388 -0.0016226678 0.0042454116 -0.0015916293 -0.003321128 -0.0018655872 0.0015836447 0.002301138 -0.003907865 -0.0016074483 -0.001040563 0.0034048697 -0.0033185957 -0.0039042353 0.0009527467 0.00025716377 -0.0025056654 -0.003975072 0.003909721 0.0029737568 0.004277639 -0.0001353561 0.0032104691 -0.0026325667 -0.0005011298 0.002992712 -0.0011082613 0.003213524 -0.004976849 0.0012590401 0.0021409648 -0.0012997382 0.0048786616 0.0031214068 -0.0017456661 -0.0033787359 -0.004711827 -0.0036287946 0.0026369453 0.0038123745 -0.0015333253 -0.0017664284 0.002713278 0.0022845464 0.0018145866 0.00013091136 -0.0002226024 0.004840255 0.004558214 -0.0025520003 0.0033367733 0.004140676 0.0010899035 -0.0027446288 0.0046858024 0.004530729 -0.0015363342 0.00058963103 -0.0042733015 -0.0047221417 -0.0030815331 -0.0024481176 0.0042265467 -0.001778075 -0.0038763438 -0.0005909903 0.0046194363 0.0012452765 -0.003602514 0.0030654455 -0.0005208645 0.0024877922 -0.0033944617 -0.0010645087 -0.002826324 -0.0042609326 -0.0025023674 -0.0033224723 -0.004736147 -0.00062123546 -0.0033971206 0.0005612038 0.0043801563 -0.004757816 -0.0018978624 -0.0006016842 -0.002898407 -0.0006810962 -0.0038129997 0.0049877483 -0.0045395736 -0.0025596719 0.0012717284 -0.00046864524 -0.0017593151 0.003375425 -0.0049888105 0.002755776
59 -0.0012361228 -0.0012522768 -0.004142634 0.0031353105 0.0013106 -0.0029384673 -0.004130179 0.003491519 -0.0002196799 -0.0024556345 -0.004697241 -0.0025125062 -0.00064995047 -0.0013538508 0.0009871381 -0.0014986969 0.0015741102 0.0037130741 -0.0032698142 -0.0022252798 0.004722709 -0.000559682 0.0010216935 -0.0012980371 -0.0045635197 -0.0019813317 0.0031820247 0.0035948148 0.0032510478 0.0014270148 0.0035377452 -0.002736113 -0.00017245999 0.0044495007 0.0026745196 0.0025768946 -0.0031144493 0.0033015748 0.0030714292 -0.0049346644 0.0015274142 0.004659339 0.004569947 -0.00046769483 0.004409765 0.0045697596 0.0017768503 0.0002591731 -0.0043931613 -0.0035178673 0.004726028 0.0015849778 -0.0033541804 -0.0007672948 0.0017130966 -0.0024611682 0.002701112 -0.003129242 0.0027182186 0.0017656358 0.0040818043 0.004310812 0.003370516 0.0049434835 -0.004211843 -0.0040696035 0.0003698729 -0.0011512588 0.0031861523 -0.0004219655 -0.00449445 0.0040130047 0.0024100863 8.103484e-05 -0.0012095142 -0.00070022745 0.00093615986 -0.00034297537 0.0032478673 -0.0038617337 0.0008508479 0.0034191385 0.0041119307 0.00078553334 -0.002475313 0.0009767548 0.0012968602 0.003971872 0.0009216964 0.0016186992 -0.0037090378 -0.003531559 -0.004301947 -0.0020848727 0.0015448402 0.0014974098 0.0020721005 0.0018030847 -0.00068674097 0.0026489985
60 0.0045104176 -0.0031462156 0.00081748655 0.0021391194 0.0011488581 -0.002231319 0.00093923043 -0.002372192 0.004410276 -0.004455712 0.0016795392 0.0048777135 0.0025545247 -0.0040426753 0.0021296586 0.0014435472 -0.0020801448 0.003999509 0.0032463726 0.0013584704 -0.00024224585 0.004161708 0.004971563 -0.0018704706 0.003652799 -0.004876744 -0.0036361725 0.0030972902 -0.0017703425 -0.00057255337 -0.0045458707 -0.0023339724 -0.0045421533 0.0021040402 0.0002796664 -0.0007624668 -0.0008451771 -0.0026687426 0.0032487037 0.004340769 0.0025945497 0.0023342557 -0.0021278786 -0.0049352627 -0.0043832893 -0.001800003 -4.9180817e-05 0.004812533 -0.00281578 0.0043712296 0.0004214286 0.0011294251 0.004944369 0.0027909214 -0.004226791 0.0024812096 0.0021249214 -0.0040127356 -0.0020704472 0.0036723614 0.0015495908 -0.0016909379 -0.0022938251 0.0006337017 0.0017732838 -0.0031201034 0.0023565446 4.3864828e-05 -0.0025408464 0.002660832 -0.0029841112 -0.0015146178 -0.00038038427 -0.001212504 0.0017070747 0.0005891244 -0.00012260629 0.004474272 0.001344644 -0.0012076264 -0.003273021 -0.0032413811 0.00079401024 -0.0013129914 0.003833213 0.003734002 -0.0015605402 -0.00023798412 0.0037059374 0.0028889403 0.0016613184 -0.0046742857 0.00474149 -0.003104617 -0.0018614833 0.0027028117 0.004755047 0.0021611652 0.0047343457 -0.0030758474
61 0.0035121515 0.0010841633 -0.003416628 -0.0043801037 -0.0012386839 0.004055891 0.00035294052 -0.0022397519 -0.0009247931 -0.0011733002 0.0007606591 0.00053482875 0.0030074492 -0.0014336235 0.0037628813 0.002061836 -0.004347352 0.0015291697 0.001976484 0.0037437007 -0.0002704179 -9.5024705e-05 -0.0002992712 0.0042867996 0.0025017904 0.0028191805 -0.0022504723 -0.0032463865 -0.0043522073 -0.00026776688 0.0012565292 -0.00013005268 0.002428065 -0.004824223 0.0016230075 0.002461811 0.0033767205 -0.0029300582 -0.0018625848 0.004627064 0.0030215038 -0.0023245923 -0.0044173175 0.000587577 0.0017548096 0.00155761 -0.0046735243 0.0004400788 -0.0044863457 0.0019190256 0.0015867646 0.0018585855 0.0021141134 -0.004571689 0.004563219 -0.0025688284 -0.004323114 -0.003312415 -0.0031138752 0.004739033 -0.004895669 -0.00034086267 -0.0041555385 0.0046375617 0.004485176 -0.00040712114 0.004406438 0.0046034446 0.0013709096 0.003272714 -0.0014601706 0.001124023 0.0004239292 -0.0011085535 0.004268199 0.0017703841 -0.0027894818 -0.0006425916 -0.0034529155 0.0043978076 0.004834085 -0.0013942588 -0.0008438672 0.004282181 0.004636852 -0.0031276941 -0.002715755 0.0043383176 0.0024732328 0.0017295755 0.0020747306 -0.002490751 0.0016565276 -0.0032357727 0.0014998792 -0.0027351761 -0.00046656327 -0.0002615815 -0.0038127713 0.0017828159
62 -0.0006135935 0.00095923385 0.0005689501 -0.0041999184 0.0036057895 0.0019771606 0.0026467615 0.0022907965 0.003412053 -0.00069022225 -4.9103517e-05 0.001896665 -0.0033512418 -0.003745188 -0.0034736712 -0.00068778824 -0.0048726327 0.0039899675 0.0048286133 -0.0038484386 -0.004775767 0.002920352 -0.0040573915 0.000780344 -0.004999268 0.0023487615 0.002600714 0.00049498305 -0.003518636 0.002564034 0.0049059875 0.0026816325 -0.0002619396 0.00257236 0.00090056704 0.0011708997 -0.00014420412 0.0030091526 0.0020185122 -0.0005874662 -0.0031124465 -2.8778799e-05 -0.0036373823 -0.0021350782 0.0010711802 0.0024574082 -0.00043538818 -0.0004291986 0.0047493074 -0.0037836013 -0.0009297584 0.0043685064 -0.00103189 -0.0031521106 -0.00312671 0.0005571116 0.000931276 0.0029084273 0.0022418462 0.002840872 -0.002469265 -0.0043103253 -0.0010605906 -0.00035933545 -0.0031906615 0.0037193634 -0.0022564954 -0.004896941 -0.0044587073 -0.0040121237 0.0036979802 -0.0036940943 0.0022452776 -0.004778037 0.0025918102 -0.0013263756 0.0029115677 -0.0043039774 0.001353439 -0.0010995518 -0.004781461 0.00052043144 0.0018011825 -0.003548336 -0.00084234914 -0.00495767 -0.0012788337 -0.0033377535 0.0021235584 -0.0022055132 -0.0036515123 0.0037400415 -0.004275527 -0.0002376223 -0.0039729234 -0.0047640335 0.0015590452 0.0032523796 -0.0027978627 0.0045682704
63 -8.453848e-05 -0.0034366995 -0.0016171699 -0.0019486875 -0.0045236773 -0.0027980767 -0.0015255087 -0.0017322146 -0.0014083635 -0.00073210336 -0.0048742592 0.004513398 -0.0044579064 0.003664622 0.0010886271 0.00021205377 -0.003829503 0.001252701 0.0032955399 0.003971054 -0.0012422877 0.0046005594 -0.0024181067 0.0017672717 0.0015508556 0.00077872816 0.0043256907 -0.004039893 0.0030398509 -0.0049312306 0.0038237283 0.0031718183 -0.00365475 0.0024837358 -8.425489e-05 -0.001117524 -0.0037901453 -0.0031674802 0.0030489676 0.004423584 0.0033355542 -0.0013966728 0.0041378597 0.0037203105 0.00026620878 0.0026884861 -0.0046165693 0.00029161386 -0.0009928904 -0.0033134692 -0.002457524 0.0011669882 -0.0015479629 -6.8544876e-05 -0.00082435785 -0.0049242964 0.0011926806 -0.0036697208 0.004310485 -0.0044853995 -0.000637772 -0.0017451281 0.004520243 -0.0033425177 0.002080334 0.0019703237 0.004408121 0.0048424685 -0.0011842989 0.0013987292 -0.002087183 0.0019024075 0.0016925335 -0.0011061972 0.002639547 0.0018272749 0.00060490146 -0.0023290748 0.0032884246 -0.0021634728 0.00057761604 -0.00027361326 -0.004773209 0.0014471123 -0.0031459325 0.0016893148 -0.0030823343 0.0013517649 -0.0005604951 0.00424051 0.0033723721 -0.0043212376 -0.0035835837 -0.0016829777 0.0011364236 0.0024970914 -0.0016809481 0.0029074904 -0.0017725073 0.0043052016
64 0.003498002 -0.001145656 -0.00013130438 -0.0039150105 0.002567472 -0.00030882237 0.0024726265 -0.0015566056 0.0016106982 -0.00031341333 -0.004555815 -0.0010746182 0.0031811558 -0.002425752 0.0011315029 -0.0049089096 0.0019653756 0.0038160952 -0.003448898 -0.0032533973 0.00017111376 -0.0014363138 0.00019458495 0.0028937291 0.0020339536 -0.004770701 -0.0008321088 0.00014113681 0.00061170897 0.0039019426 0.00064782146 0.0021150024 -0.0035125732 0.0027065692 -0.003031082 0.004158645 -0.004795712 -0.0043179058 0.004571016 -0.0039894027 0.0027784798 0.0024599056 -0.0029787242 -0.0007360745 0.0034438092 -0.004773664 0.001912883 0.0033778567 -3.136974e-05 2.4633482e-07 -0.0021134412 -0.00075053703 -0.003569051 -0.00089214975 -0.0048468183 0.0005783816 5.9790444e-05 -0.00052807666 0.0039781537 -0.003580206 -0.00031009922 0.0032270504 0.0002600844 0.0013689864 0.001634622 0.001129169 -0.0011994599 0.0039985273 -0.0019314629 -0.0022552102 0.002056824 0.00021625776 0.0012305146 0.004187707 -0.0017004395 0.00045498786 0.003254937 0.0020532971 -0.0049542934 0.0011217599 -0.0011241757 -0.0031534838 -0.0036207396 -0.001364355 -4.466623e-06 0.0006438643 0.0046564797 -0.0019196707 -0.0032345508 0.0029910505 0.00016525574 -0.00016268482 0.0005586166 0.003892202 0.0019209562 0.0042443313 -0.0011398012 -0.0012943668 -0.0017644442 0.0037292494
65 -0.0030017614 -0.0029779118 0.0021586823 -0.0021696752 -0.0049937433 0.0036739614 -0.0013820743 -0.0034178114 0.00027763797 0.0003964845 0.0016169804 -0.0014127928 0.0023864214 -0.0044327886 -0.0012705552 0.00084501505 0.0047946433 0.00107576 0.0030676164 0.0046927463 -0.0039222706 -0.0026964145 0.004248203 0.0034432402 0.0011255634 -0.0037103784 0.0032168087 -0.0018115062 -0.0024357312 -0.00048764842 0.004805131 -0.0026958769 0.0001925854 -0.0020101613 0.0034702746 -0.0027777075 0.004465447 0.0031370204 -0.0032578432 -0.0023792565 -0.0012272776 -0.0030558996 -0.0041728173 -0.00047216238 -0.0033612535 0.0026193154 -0.0012063025 0.00089030573 -0.0045175557 -0.0045476304 -0.00063131284 0.00371351 0.00019220542 6.286753e-05 -0.0007032268 0.00046646874 0.004535648 -6.3512474e-05 -0.0027422057 -0.0031080754 0.0025873748 -0.0042391717 -0.004794566 -0.00223459 0.0041295076 -0.0013641547 0.0019389177 -0.0007292372 -0.0032552532 0.0045457557 -0.003011791 0.0006465246 -0.004275763 -0.004093831 -0.0047906293 -0.0008668727 -0.0017294162 -0.0027144162 0.0003603953 0.004501571 0.0028255945 -0.0023662758 0.0011780648 -0.00018307334 0.0035999054 -0.004644535 -0.002821821 -0.0018653427 0.0024965485 -0.00020051701 -0.0027950883 0.0039921803 0.0044471957 -0.003034135 0.0015128525 -0.004630886 0.0015222253 -0.001066749 -0.0011192798 -0.0017788452
66 0.000454647 0.0032475153 0.0013921051 -0.004519312 -0.000116516836 0.0012853215 0.0025021401 -0.000525014 -0.0049702288 0.0021459484 -0.00053662993 0.0012089298 -0.0019181902 0.0041428944 0.004309685 -0.0041565048 -0.003334857 0.0013684914 0.0038052034 0.004543852 0.0008558724 0.0025650077 0.0014097518 0.0022468264 -0.0017651564 -0.0024186801 -0.0019799643 -0.00048402417 0.0030868454 0.0018289662 0.0046004113 -0.0045870617 0.0041207047 -0.0013794159 0.0002445425 0.0025247522 -0.0026503312 -0.0033460176 -0.00096248556 0.00045823585 -0.0006164401 0.0027548359 0.0013132486 0.0010034139 0.001600313 -0.0009173434 0.0034596687 -0.0039568646 -0.002124749 -0.0010148888 -0.003398851 0.0025002277 -0.0012294238 -0.00087048626 -0.0037207042 -0.0028105474 0.003116793 -0.0025377262 -0.0018905883 0.004615592 -0.003612189 0.0042118775 0.00037123263 -0.00019364897 0.0025519212 -0.0041763717 -0.0020048046 -0.0045317602 0.002068269 -0.0012383033 0.00054370984 0.0025360826 -0.0023465054 -0.0040582805 -0.0009235544 -0.0027143334 0.0029266719 -1.1333264e-05 0.0017237104 -0.0041852826 -0.0009953096 1.6772188e-05 0.0014459197 -0.003394267 -0.000377181 -0.00042962143 -0.0032948349 0.0041468367 4.306622e-05 -0.0012520116 -0.0003991397 0.0016015624 0.00045215664 -0.0004961244 0.0022419998 -0.0021752554 -0.0008397382 0.002436344 0.0025835927 -0.00046011992
67 -1.3757963e-05 -0.001363321 -0.0015063775 -0.0010892581 0.0041590948 -0.0021867973 0.0013369434 -0.0036715544 -0.0034221536 0.0026707272 -0.003017249 0.00016604131 -0.0017858541 0.0012861933 -0.001302381 -0.004549417 -3.7146267e-05 -0.0032778077 0.0035044085 -0.0047430466 -0.0009856252 -0.001525091 -0.002400425 -0.0024388367 0.004646375 -0.0026342105 0.0010753176 -0.0029149335 -0.00062966393 0.0020174314 -0.00089332974 0.0019333856 0.0034034913 0.0049757846 -0.0016699212 0.0043604095 0.0008015097 0.0018528192 -0.0011923844 -0.0011694462 -0.000818423 -0.0018705057 -0.0021690256 -0.0013860858 -0.0042714495 -0.0019501781 -0.00075439084 0.0039485088 0.00096675055 -0.003092863 -0.00021760026 -0.0025946402 -0.0026077854 0.0037327511 0.00044123968 -0.000451406 0.0037494758 -0.004994269 -0.0021863966 -0.00076381816 0.0014172033 0.0042770067 0.0025001494 0.0011215778 0.0039500073 -0.0029641741 -0.00419966 0.0005106949 0.004661753 0.0022605406 0.0021803896 -0.0009679375 0.002874663 0.0030582026 0.0006114347 -0.004340992 0.0012850473 0.002714823 -0.004996513 0.0047954665 0.0003880579 -0.002053104 -0.0014872826 -0.0033417158 0.0014812774 0.0031109573 -0.0027226198 0.0024802731 6.6729262e-06 -0.0011613714 -0.0020115662 0.0006749318 0.004968984 0.0028777318 0.0015184428 -0.0002531279 0.0048154686 0.002974418 0.0021630847 -0.0039937664
68 0.0014008046 0.001985659 0.00028775027 0.0030077528 0.0018325471 -0.0028288693 0.00456657 -5.2247196e-06 -0.0026999335 -0.00299595 0.0037975553 0.0046699336 -0.0011281364 -0.00019262964 -0.00012250058 0.0016966844 -0.0010947352 0.0029681893 -0.0038207672 -0.002128707 0.001016242 0.0012590629 -0.003860578 -0.0029630964 -0.0029234427 0.0047076745 -0.0033945846 -0.00015946943 9.5449854e-05 -0.0008590226 0.0043511437 0.003837726 0.000825454 -0.0017260956 -0.0033978545 0.004877815 0.00057720067 -0.004920647 -0.0025016807 -0.0041544014 0.0047498494 -0.00022883993 0.0020751632 0.0015626014 -0.00015494647 -0.0018857073 -0.0049636555 -0.0031751418 -0.0024793707 -0.0028580646 -0.0040193107 0.004189142 -0.0012601495 -0.0013802815 -0.004212588 -0.0018970496 -0.0011889755 -0.0034551308 -0.004366436 0.004451777 -0.0007000845 0.00022481382 -0.0025713432 -0.003498206 0.004224347 -0.0013630027 -0.00032388605 -0.004232792 0.0014833976 -0.004374545 0.00081974454 0.002463418 0.004126733 -0.0046736673 -0.0040984266 0.0035425052 -0.004006399 -0.003409937 0.0011609993 -0.00033783633 -0.0046662367 0.0047172178 -0.0041259537 -0.00029201247 0.0030980445 -0.001655547 -0.004647402 -0.0043605044 -0.0024798284 0.0007773475 0.0031226482 -0.00029802928 -0.00013872562 0.00024739932 0.0042423513 0.0049943747 -0.00033247937 -0.0018209671 0.0028923806 -0.0005261395
69 -0.0032481276 -0.0015477859 -0.0016112167 -6.848574e-05 0.001767219 -0.0011461163 -0.003903883 -0.0037222183 -0.0024612343 -0.002499063 -0.004915636 0.0024433015 -0.0044190404 -0.0023106777 -0.00023273565 0.002057733 -0.004044369 0.0020886892 0.004733583 -0.00185045 -0.0040081847 0.0036394522 0.0046041915 -0.00440718 -0.003949255 -0.004568907 -0.004456237 -0.0027531683 -5.5512413e-05 0.0021356968 0.0016685342 0.0042233057 0.0049947836 0.0031498624 0.0033122208 0.0021395874 0.00096257543 0.0015388727 -0.0039079813 0.0018091504 0.002800277 -0.0015933102 -0.0021737826 -0.0029308337 -0.004357389 -0.0041744676 -0.0012258708 -0.0035718451 0.00016459636 0.0029100664 0.0022368184 -0.00070740655 -0.0027336257 0.0016369019 0.004385066 0.0018983847 -0.0047989283 0.0016516717 -0.00144912 -0.0012434374 -0.0017241244 -0.0035653936 -0.0020011247 -0.0016590361 -0.00021290407 0.0039019743 0.0042242883 0.0017878306 -7.735845e-05 -0.00028141774 0.0039761337 -2.9602088e-05 -0.0044564763 -0.0034614638 -0.00075578736 -0.0015985672 0.004483646 -0.0029872851 0.0017595002 -0.0018446816 -0.0038103652 0.004134273 -0.0037578875 0.0022871266 0.001426084 0.003584317 -0.00074147806 -0.0016834133 0.0040558316 -0.0027719575 -0.0022049986 0.0041880272 0.00065847114 -0.0022394657 -0.0037997721 0.0031780675 0.00028751092 0.0038359156 0.0017134212 -0.0008004657
70 -0.002146738 -0.0011030424 -0.004459292 -0.0017661441 -0.0040463395 0.00055314414 0.00035651913 -0.001580144 0.0027862284 0.0026017125 0.0025096722 -0.0027893751 -0.0024755613 -0.004650382 0.0026750793 0.0009432081 0.0041103205 -0.0045076758 0.00076754764 0.0028358148 0.0023599332 0.004256271 0.0008900766 0.0022159014 -0.0005650292 -0.0007505892 -0.0039652465 -0.0048319874 -0.0028160547 -0.0011673695 -0.0028996128 -0.002084235 -0.003981458 -0.000178474 -0.0029744075 -0.0048259157 0.004039078 0.0022630985 -0.00033846544 0.0014383025 -0.0012504451 -0.0008626557 0.0028486373 0.001172462 0.0016717846 0.0015636776 -0.00018692156 -0.00072901 -0.0033482646 0.0030353693 0.0034763888 -0.003922669 -0.00038545392 0.0046097264 -0.0026378483 -0.0045540356 -0.00084360316 0.0028335461 -0.0012785231 0.0035979655 -0.002371819 0.0046108225 0.00062212953 0.004278479 0.0010698908 -0.0001030569 -0.001384272 0.002999748 -0.0011257548 -0.0012141024 0.0021318346 -0.0005764798 -0.004803552 0.0022562332 -0.00013452955 -0.003110249 -0.0019275264 0.0023584706 -0.0044611674 -0.003478933 0.0013825516 0.0018256647 -0.0028363394 0.000409591 0.0025312714 -0.002324603 -0.00123375 -0.0015350909 0.0031338828 0.0015184619 -0.0029504304 -0.0009339168 0.00320475 0.0045759697 -0.0019700688 -0.004077048 -0.0015846675 0.00038101804 -0.00069997227 0.00493039
71 -0.00078880414 0.0046716025 0.0044355365 -0.0011431759 0.002596506 0.0037043234 -0.0031576864 -0.0048542004 -0.004609777 0.0032060966 0.0044203335 -0.0027780496 0.0007598917 0.0046994444 0.0034191385 0.0013226904 0.0028152838 -0.002071954 -0.0042490372 -0.003225789 -0.0017438156 0.0022871918 0.001975996 -0.0013385534 -0.0013772184 0.0010897364 -0.004110205 -0.0033083758 -0.0020053582 -0.0026748925 0.0014677919 0.0011568218 -0.0044227545 0.0026026177 -0.0027921908 0.0022563534 -0.0024290376 0.0015954822 0.0027427399 -0.0031438058 0.0014136266 -0.0034495462 0.0037626438 -0.0047420943 -0.0035185968 -0.0015665828 0.0017429632 -0.0007441058 -0.0044649118 0.0013540941 -0.003217111 -0.0045968643 -0.0013741886 -0.002840482 -0.0014312137 0.0013770363 -0.00017372053 -0.0018007231 -0.0038336688 0.0021153195 0.0030759517 0.0047640633 -0.00084543694 -0.00013500825 -0.00034618517 -0.0023701573 0.0025266786 -0.0038597593 0.0035621626 -4.1680876e-05 -0.0010812902 -0.0038039982 -0.003814747 -0.0047452645 0.001619773 -0.004833611 -0.0022955216 0.004870491 -0.0010717125 -0.002768308 0.0049013393 -0.00019344222 0.0039052805 -0.003724684 -0.00097630965 0.0049736304 0.0032835891 0.0028181924 -0.0015925306 0.0020396924 0.002593298 0.0045169247 0.0021498585 0.0034147752 -0.0016777664 -0.0012096327 0.002265675 0.0012255008 -0.0025363003 -0.0041613523
72 0.0036575347 -0.0034532142 -0.001131475 0.0026284135 -0.004314347 -0.0049797385 -0.0003407197 0.00477124 -0.0021429635 -0.0021619988 0.0025164713 0.0012452481 0.0016796393 -0.003774269 0.0020235656 -0.0039278995 -0.0004587979 -0.00262403 -0.0008080276 -0.0042701103 0.0049855085 0.0023985552 -0.0018957234 -0.0014262027 0.004942097 -0.00048892014 -0.002833376 0.00015129801 0.0023798984 -0.0035494345 -0.000705163 -0.0049004694 0.0025052135 -0.0026711433 -0.0011711663 0.004599591 -0.003002442 0.0012114239 0.004057926 -0.00043551065 0.0038394798 0.0009616143 0.00039309962 0.0007915138 -0.0018681407 0.0009416132 -0.0024346411 0.0040925536 0.0037543671 0.00095034717 -0.0006631599 -0.00122396 -0.00062924577 -0.00029597105 0.0013576946 0.0033858689 0.0013276068 0.0023759045 -0.0008636038 -0.0035356218 0.0038928343 0.0014195088 0.0021956218 0.0038090004 0.0034716586 -0.0022016454 -0.004090321 -0.0022785293 0.0014806855 -0.0011091416 -0.0029024146 -0.003335489 -0.0018330938 -0.0006000204 0.0048505776 0.0016510678 0.0026414352 -0.003218044 -0.00039552758 0.00021037273 -0.00050795916 -0.0030976343 -0.0049968627 0.0027362532 -0.00265145 -0.001420828 0.0045979246 0.0023102192 0.0019443044 -0.0018142664 0.0013293596 0.00252064 -0.00012200698 0.0018778048 -0.0048174183 -0.0018448466 -0.0020067065 0.0037670052 0.0015097116 0.0020018928
73 0.0021601878 -0.0027869248 0.001092209 0.002528037 -0.003299341 -0.0029490632 0.004723304 -0.0007558586 0.0032221284 0.003068544 -0.0011773533 0.0018987716 0.00066134287 0.0002370216 0.003904583 0.003669341 -0.0030630243 0.0012274059 0.0030161114 -0.004587643 0.0013477998 -0.0047033373 0.0029751007 -0.0018538309 -0.004100582 -0.0005003102 0.0032848641 0.000736861 0.004452794 0.0028417418 -0.0033445698 0.003029909 0.0001977915 0.0010446734 0.00048212754 -0.0017095064 0.0039047347 -0.0017276716 0.0031726863 -0.003331012 -0.0024791514 0.0013788329 -0.0049570277 -0.0026775347 0.0042076726 -0.0015634757 -0.0012027924 -0.00012499234 -0.00086231483 0.001060829 0.0035206545 0.00431268 -0.0009691031 -0.00053944346 -0.004884725 -0.002388582 0.0024071704 -0.0033543997 0.004237257 0.0005033063 -0.0036378377 0.0048178947 -0.00068108505 -0.002184934 0.0017719646 0.004990342 -0.0029094128 -0.00486297 0.004172952 -0.002314766 0.0017196042 -4.7439244e-05 -0.00086922105 -0.0038332015 -0.0038302243 0.0021665231 -0.001230197 0.0011498928 -0.0019098716 0.004469551 -0.0010932847 0.0036376491 0.00038379477 -0.0030524235 0.001923623 0.0021935166 -0.0017013066 -0.002947536 0.004053494 0.0028751688 -0.001932764 3.1356234e-05 0.0018726606 -0.00036461465 -0.0021113085 -0.0012862033 -0.00035066903 -0.0009336858 -0.0034490381 -0.0013339466
